tree
version=v4
num_class=1
num_tree_per_iteration=1
label_index=0
max_feature_idx=79
objective=binary sigmoid:1
feature_names=Column_0 Column_1 Column_2 Column_3 Column_4 Column_5 Column_6 Column_7 Column_8 Column_9 Column_10 Column_11 Column_12 Column_13 Column_14 Column_15 Column_16 Column_17 Column_18 Column_19 Column_20 Column_21 Column_22 Column_23 Column_24 Column_25 Column_26 Column_27 Column_28 Column_29 Column_30 Column_31 Column_32 Column_33 Column_34 Column_35 Column_36 Column_37 Column_38 Column_39 Column_40 Column_41 Column_42 Column_43 Column_44 Column_45 Column_46 Column_47 Column_48 Column_49 Column_50 Column_51 Column_52 Column_53 Column_54 Column_55 Column_56 Column_57 Column_58 Column_59 Column_60 Column_61 Column_62 Column_63 Column_64 Column_65 Column_66 Column_67 Column_68 Column_69 Column_70 Column_71 Column_72 Column_73 Column_74 Column_75 Column_76 Column_77 Column_78 Column_79
feature_infos=[-3.3040182590484619:2.8092916011810303] [-3.1924912929534912:3.0163013935089111] [-8.5634555816650391:5.8650312423706055] [-0.30496597290039062:14.91018009185791] [-3.3319778442382812:2.9312601089477539] [-8.1519174575805664:5.7698402404785156] [-5.3184270858764648:3.7576873302459717] [-0.20870073139667511:4.7915501594543457] [-8.1518659591674805:5.7698407173156738] [-0.21227416396141052:20.632377624511719] [-7.1083254814147949:4.9277029037475586] [-6.1409153938293457:4.5878782272338867] [-0.22891794145107269:4.368377685546875] [-7.291323184967041:12.447846412658691] [-4.735748291015625:11.745428085327148] [-1.2915513515472412:4.9244852066040039] [-1.5560592412948608:1.4387053251266479] [-1.6651719808578491:8.1621999740600586] [-4.2984395027160645:3.8649296760559082] [-10.16063117980957:11.710861206054688] [-4.2953414916992188:3.8626604080200195] [-3.0278313159942627:2.7603912353515625] [-0.39675289392471313:2.5204603672027588] [-0.34301814436912537:2.9152977466583252] [-1.1092991828918457:12.912800788879395] [-1.3348135948181152:1.2632168531417847] [-11.289839744567871:7.8149490356445312] [-1.0486540794372559:1.9919034242630005] [-8.2288265228271484:5.2259640693664551] [-0.49100673198699951:2.0366320610046387] [-0.45077905058860779:2.2183816432952881] [-1.4546715021133423:1.365111231803894] [-1.1860967874526978:0.84310144186019897] [-0.59782719612121582:1.6727242469787598] [-0.50826841592788696:1.9674643278121948] [-5.8718466758728027:3.7319071292877197] [-1.568150520324707:1.4389146566390991] [-6.2412452697753906:4.075960636138916] [-4.2969298362731934:3.8638081550598145] [-0.24236239492893219:4.1260528564453125] [-1.5074738264083862:6.2226924896240234] [-3.1955273151397705:3.0590810775756836] [-1.5074738264083862:6.2226924896240234] [-5.1460332870483398:4.6318426132202148] [-6.9298834800720215:4.8824725151062012] [-0.78262275457382202:2.74393630027771] [-1.2350327968597412:9.850947380065918] [-1.8716983795166016:1.9157061576843262] [-1.858209490776062:1.6041438579559326] [-1.5098152160644531:1.3126837015151978] [-5.9699082374572754:4.1153388023376465] [-0.45492884516716003:2.198145866394043] [-3.3336961269378662:2.9044044017791748] [-0.50508689880371094:1.9798572063446045] [-1.8116155862808228:21.484424591064453] [-0.73206299543380737:1.3660025596618652] [-2.7669689655303955:5.0216922760009766] [-2.5052649974822998:4.9900722503662109] [-2.8088579177856445:4.4969639778137207] [-1.8583312034606934:1.6041858196258545] [-11.287184715270996:7.5066523551940918] [-8.9310083389282227:6.2368402481079102] [-1.1265280246734619:0.8876832127571106] [-0.19104522466659546:5.2343626022338867] [-5.6231441497802734:4.9204630851745605] [-1.1612555980682373:0.861136794090271] [-0.39933374524116516:2.5041708946228027] [-0.38628840446472168:2.5887396335601807] [-4.2600388526916504:4.3102555274963379] [-1.5104511976242065:6.9803895950317383] [-1.1292810440063477:0.88551908731460571] [-0.25630122423171997:3.9016592502593994] [-7.2739839553833008:5.0820765495300293] [-2.5840737819671631:2.2687482833862305] [-2.5767240524291992:2.2659530639648438] [-2.5046193599700928:4.9891653060913086] [-1.8578035831451416:1.6040486097335815] [-1.3749312162399292:10.805952072143555] [-1.711722731590271:7.3124589920043945] [-1.1915434598922729:0.83924758434295654]
tree_sizes=3419 3475 3477 3489 3477 3476 3498 3482 3481 3474 3493 3478 3492 3454 3483 3483 3479 3489 3488 3482 3467 3496 3495 3479 3458 3504 3480 3493 3500 3483 3459 3493 3502 3478 3480 3490 3464 3477 3460 3473 3465 3472 3485 3463 3494 3473 3489 3479 3483 3459 3490 3491 3489 3494 3486 3471 3471 3474 3463 3454 3498 3484 3500 3495 3471 3442 3463 3473 3472 3461 3468 3469 3471 3501 3470 3475 3496 3413 3474 3458 3416 3467 3491 3488 3447 3471 3501 3474 3484 3474 3464 3506 3497 3458 3421 3490 3462 3454 3474 3482 3454 3462 3460 3445 3491 3479 3450 3501 3494 3456 3493 3455 3491 3436 3480 3419 3455 3470 3476 3431 3423 3455 3488 3457 3447 3472 3455 3466 3472 3445 3468 3466

Tree=0
num_leaves=31
num_cat=0
split_feature=1 11 1 1 52 11 1 32 65 15 52 1 52 68 52 52 15 50 60 5 1 60 27 49 52 15 6 11 68 78
split_gain=37.6371 67.8656 61.2831 33.6115 47.1501 44.0097 44.7005 40.6181 32.7128 30.0533 29.609 28.6274 24.6189 24.5012 27.1587 24.3039 25.2025 23.3527 23.0669 22.838 23.4442 22.6848 22.6234 22.5995 22.3779 22.8633 22.1067 23.8966 21.9755 21.4027
threshold=0.89774447679519664 0.28038004040718084 -0.22933915257453916 -0.92369160056114186 -0.5024370253086089 -0.4090829193592071 -0.049860205501317971 1.0000000180025095e-35 1.0000000180025095e-35 -0.41918650269508356 0.28794938325881964 0.090147860348224654 -0.059645714238286011 1.3285812735557558 1.4448960423469546 0.43290665745735174 -1.027638792991638 1.5167976021766665 -1.2154849767684934 -0.31402239203453058 0.5464729666709901 -0.30041049420833582 1.0000000180025095e-35 1.0000000180025095e-35 -0.74441492557525624 -0.31389404833316797 1.5596195459365847 0.73906901478767406 0.79451918601989757 1.5521965026855471
decision_type=2 2 2 2 2 2 2 2 2 2 2 2 2 2 2 2 2 2 2 2 2 2 2 2 2 2 2 2 2 2
left_child=1 3 24 10 -5 19 7 21 11 -9 28 12 -4 14 22 23 -17 -13 -10 20 -6 -7 -2 -8 25 -3 -16 -28 -1 -15
right_child=13 2 8 4 5 6 15 9 18 -11 -12 17 -14 29 26 16 -18 -19 -20 -21 -22 -23 -24 -25 -26 -27 27 -29 -30 -31
leaf_value=0.10152116159938561 0.11597364879801376 0.10719544172393854 0.099468056870739979 0.12018600250344087 0.10482046514964455 0.11517120680456132 0.12100262375141364 0.048796619438700478 0.11195531644568284 0.086895144945028396 0.061238076422170537 0.12168989333843558 0.051391179175109943 0.10061621138505904 0.11061362675849115 0.12701100714163491 0.092886134667817907 0.080750224172667195 0.085386606990912883 0.12404082285545989 0.16263559351723042 0.089576394603036125 0.14721498922010845 0.097196095026740495 0.050404419777319118 0.063188917909136499 0.11219189984851916 0.05843993425435072 0.078205578446485541 0.038599999674611307
leaf_weight=1038.9784106612206 782.41282761096954 52.110988199710846 144.11555588245392 584.69027429819107 478.47361892461777 131.64881229400635 338.09808611869812 88.264544606208801 95.495255887508392 125.16610562801361 53.606997430324554 253.07489484548569 32.662868201732635 256.31624817848206 155.58495998382568 63.081722557544708 380.23567944765091 40.392249226570129 565.24215430021286 321.64198458194733 18.201445639133453 252.82555997371674 62.583052814006805 141.37287229299545 101.72862768173218 68.068419992923737 33.660207688808441 53.606997430324554 111.95135742425919 14.710757434368132
leaf_count=4167 3138 209 578 2345 1919 528 1356 354 383 502 215 1015 131 1028 624 253 1525 162 2267 1290 73 1014 251 567 408 273 135 215 449 59
internal_value=0.103252 0.101405 0.0916866 0.10459 0.107486 0.104312 0.0992804 0.0886306 0.0964003 0.0711394 0.0975614 0.10648 0.090585 0.110701 0.114052 0.106181 0.0977419 0.116055 0.0892265 0.113661 0.106939 0.0983404 0.118287 0.113983 0.0676623 0.0822706 0.0993156 0.0791728 0.0992532 0.0972501
internal_weight=0 5481.13 1352.89 4128.24 2923.7 2339.01 1520.69 597.905 1130.98 213.431 1204.54 470.246 176.778 1358.88 1087.85 922.788 443.317 293.467 660.737 818.317 496.675 384.474 844.996 479.471 221.908 120.179 242.852 87.2672 1150.93 271.027
internal_count=27433 21983 5426 16557 11726 9381 6099 2398 4536 856 4831 1886 709 5450 4363 3701 1778 1177 2650 3282 1992 1542 3389 1923 890 482 974 350 4616 1087
is_linear=0
shrinkage=1


Tree=1
num_leaves=31
num_cat=0
split_feature=0 43 64 0 43 64 6 0 0 0 50 50 6 50 43 6 64 0 43 37 0 0 50 43 0 0 50 6 43 0
split_gain=138.173 187.874 133.102 87.7762 192.131 153.997 121.111 98.1296 97.7546 81.5447 85.2566 74.0828 64.9456 60.9685 57.7765 57.2106 57.146 56.7389 45.1013 44.3102 41.8498 40.8973 58.7222 48.9394 40.7439 37.7317 37.2178 36.7305 36.7128 35.8872
threshold=0.51263320446014415 0.45903177559375768 0.6127614974975587 -0.73680651187896717 -0.50710746645927418 -0.75947552919387806 -0.19840650260448453 0.076946929097175612 -0.39995902776718134 -1.4584082961082456 -0.78363290429115284 -0.64126673340797413 -0.18178779631853101 0.66602706909179699 0.037537747994065292 -0.21453732252120969 -0.19268123805522916 -0.39995902776718134 -0.1725482568144798 0.181530736386776 0.19647206366062167 1.1359273195266726 0.68900874257087719 0.96834525465965282 -1.1089109182357786 1.0639594793319704 -1.1190807223320005 0.12779052555561068 -0.76550137996673573 -1.686050236225128
decision_type=2 2 2 2 2 2 2 2 2 2 2 2 2 2 2 2 2 2 2 2 2 2 2 2 2 2 2 2 2 2
left_child=1 3 13 5 15 9 8 16 18 26 -11 24 -3 -2 -9 -5 -8 28 -6 20 -14 23 -23 -4 -7 -15 29 -16 -17 -1
right_child=2 12 21 4 6 11 7 14 -10 10 -12 -13 19 25 27 17 -18 -19 -20 -21 -22 22 -24 -25 -26 -27 -28 -29 -30 -31
leaf_value=-0.017834445694171752 0.045329921806749267 -0.017652740058082535 0.0042401755599790246 0.054886713078163667 0.0071520227984151075 -0.047992699111079666 -0.012579260713146495 0.016713394735506395 0.027313031817610189 0.02796145955457921 -0.008738608478186036 -0.062882448681988848 -0.083728262876687387 0.0044245638858321978 0.010641395089380314 0.017828110843521126 -0.04349423208891192 0.035018682286048271 -0.032821442411300861 -0.073013396479996343 -0.005357466094609316 0.045578716267695281 0.0049878819041700856 -0.02371876974559893 -0.0060118058021991286 0.047858772103845815 -0.042203236303132462 -0.022612216787028905 -0.023250312824596477 0.01556029724416726
leaf_weight=309.47213743627071 320.26620431244373 259.87914867699146 397.72237451374531 150.04912760853767 164.29418167471886 86.535170048475266 309.38608418405056 298.61232927441597 448.50995798408985 337.2791360616684 298.12028755247593 163.602115213871 23.442295208573341 231.10573406517506 119.43275117874146 133.60354261100292 289.21992684900761 272.42232821881771 123.68862360715866 130.97113354504108 62.316632449626923 101.44685061275959 732.20244646072388 258.07609038054943 174.02812725305557 63.806379377841949 106.97167080640793 272.52150192856789 91.739540576934814 108.70939508080482
leaf_count=1241 1285 1042 1595 602 659 347 1241 1198 1799 1353 1196 656 94 927 479 536 1160 1093 496 525 250 407 2937 1035 698 256 429 1093 368 436
internal_value=0 -0.00473772 0.0106599 -0.0014056 0.00412132 -0.0107297 -0.00345874 -0.0126995 0.0127164 -0.00130679 0.0107423 -0.0365117 -0.0345081 0.0302252 0.000144 0.0278235 -0.027516 0.0196655 -0.0100166 -0.0547192 -0.0267802 0.00257889 0.00992738 -0.0067625 -0.019954 0.0138219 -0.0158854 -0.0124795 0.00110465 -0.00915323
internal_weight=0 4734.81 2104.63 4258.2 2673.48 1584.72 2025.67 1289.17 736.493 1160.55 635.399 424.165 476.609 615.178 690.567 647.815 598.606 497.765 287.983 216.73 85.7589 1489.45 833.649 655.798 260.563 294.912 525.153 391.954 225.343 418.182
internal_count=27433 18991 8442 17080 10724 6356 8125 5171 2954 4655 2549 1701 1911 2468 2770 2599 2401 1997 1155 869 344 5974 3344 2630 1045 1183 2106 1572 904 1677
is_linear=0
shrinkage=0.05


Tree=2
num_leaves=31
num_cat=0
split_feature=0 11 11 0 64 11 0 50 0 50 50 64 11 50 0 0 0 50 50 0 0 0 5 50 14 0 50 26 64 0
split_gain=124.787 186.921 164.403 127.036 138.325 105.854 86.113 79.7656 79.0362 67.1942 57.3927 54.4464 52.6177 51.8469 50.1085 48.1057 46.7139 47.9422 40.3821 38.9687 35.8975 35.6241 34.3933 33.9627 33.6369 32.1394 30.6414 29.9539 29.218 40.6382
threshold=0.53293925523757946 0.1492218300700188 0.218848392367363 -0.73680651187896717 -0.85841825604438771 -0.3996936678886413 -1.4027293324470518 -0.70267942547798146 -0.14888629317283628 0.071200542151927962 0.077705550938844695 0.76416438817977916 0.5049930512905122 -0.91633132100105275 -0.13837757706642148 0.82463130354881298 1.2542669773101809 0.70097649097442638 -0.97979867458343495 -1.0747236609458921 -1.6509147286415098 0.21665383875370028 0.95529720187187206 0.56248655915260326 -0.31618607044219965 -0.39995902776718134 0.94710245728492748 -0.33551292121410364 -0.92270752787590016 -0.34034846723079676
decision_type=2 2 2 2 2 2 2 2 2 2 2 2 2 2 2 2 2 2 2 2 2 2 2 2 2 2 2 2 2 2
left_child=1 3 -2 4 6 28 18 19 10 -10 24 15 14 -8 -3 -4 23 -18 20 -6 -1 27 -16 -13 -7 -26 -17 -11 -5 -30
right_child=2 12 11 5 7 8 13 -9 9 21 -12 16 -14 -15 22 26 17 -19 -20 -21 -22 -23 -24 -25 25 -27 -28 -29 29 -31
leaf_value=-0.015863463278740404 0.063084350220708588 -0.05093694654965078 0.0047948715095674386 0.051329620897192521 -0.033924235842419791 0.0098921889340929537 0.034558529659991663 -0.053881748887690289 0.028845713102105389 0.013325682709274315 -0.039501255483312514 0.0055208176156420815 -0.041452004544864335 0.0019325332428288778 -0.015221836221546187 0.045437304229158156 0.052698859200204611 0.005284542879307714 -0.045464980483567029 0.0019528457365151873 0.015473148682137684 0.017674358972100644 0.023090538069956406 -0.019348798377077595 -0.0286808046918271 0.00032129318561904623 0.014542996327146659 -0.020659699956516106 0.010768230047613028 0.044548054829944242
leaf_weight=344.89575342833996 137.73881457746029 91.313382133841515 332.65453474223614 110.42420935630798 139.26045036315918 289.9959936439991 207.0537523329258 220.80624604225159 376.98093263804913 94.668100297451019 127.9061643332243 220.92227448523045 287.80340860784054 295.62694203853607 583.84708759188652 182.20562066137791 58.406924784183502 611.3791262358427 82.638726890087128 165.79628141224384 124.33701032400131 190.86017782986164 65.11080427467823 362.58675564825535 172.67961920797825 213.7959972769022 143.44319355487823 205.73833404481411 261.92443346977234 134.88581791520119
leaf_count=1382 554 366 1336 444 558 1164 832 884 1513 380 513 886 1153 1186 2341 732 235 2453 331 665 499 766 261 1454 692 858 576 825 1052 542
internal_value=0 -0.00441746 0.0103263 0.000747998 -0.0100453 0.0085732 0.000400414 -0.0309928 0.00250563 0.0129671 -0.00878649 0.00652488 -0.0233106 0.0153712 -0.0162576 0.018168 0.000409234 0.00941918 -0.0132359 -0.0144253 -0.00755991 0.000782378 -0.0113779 -0.00993292 -0.00297899 -0.012637 0.0318288 -0.00994977 0.0285813 0.0222508
internal_weight=0 4788.35 2049.34 3760.27 1580.42 2179.86 1054.55 525.863 1672.63 868.248 804.378 1911.6 1028.07 502.681 740.271 658.303 1253.3 669.786 551.871 305.057 469.233 491.267 648.958 583.509 676.472 386.476 325.649 300.406 507.234 396.81
internal_count=27433 19207 8226 15086 6337 8749 4230 2107 6711 3484 3227 7672 4121 2018 2968 2644 5028 2688 2212 1223 1881 1971 2602 2340 2714 1550 1308 1205 2038 1594
is_linear=0
shrinkage=0.05


Tree=3
num_leaves=31
num_cat=0
split_feature=0 11 11 0 43 64 0 50 6 0 43 0 0 43 64 50 0 43 50 0 0 50 43 6 50 6 0 43 0 6
split_gain=113.237 174.649 149.159 113.145 126.241 124.744 77.7574 71.9242 61.3046 83.7114 63.6972 67.4332 53.094 63.5994 52.2673 52.2519 51.7322 49.7288 46.9832 44.4874 43.9216 43.4301 43.1508 43.0319 36.3881 35.3453 38.5537 40.9855 35.1194 33.9919
threshold=0.51263320446014415 0.1492218300700188 0.20343030989170077 -0.73680651187896717 -0.75145521759986866 -0.85841825604438771 -1.4027293324470518 -0.70267942547798146 -0.19840650260448453 0.18827056884765628 -0.22920596599578855 -0.39995902776718134 -0.24977986514568326 -0.1725482568144798 0.76416438817977916 0.78924304246902477 -0.0094483327120542509 0.46864926815032965 -0.91633132100105275 1.2804734706878664 0.82463130354881298 0.70097649097442638 0.25025115907192236 -0.35267049074172968 -0.97979867458343495 -0.18178779631853101 0.3349656760692597 -0.18253538757562635 -1.0747236609458921 -0.19840650260448453
decision_type=2 2 2 2 2 2 2 2 2 2 2 2 2 2 2 2 2 2 2 2 2 2 2 2 2 2 2 2 2 2
left_child=1 3 -2 5 29 6 24 28 12 10 11 -10 13 -6 20 16 -3 25 -8 -16 -4 -21 -14 -19 -1 -18 27 -27 -7 -5
right_child=2 15 14 4 8 7 18 -9 9 -11 -12 -13 22 -15 19 -17 17 23 -20 21 -22 -23 -24 -25 -26 26 -28 -29 -30 -31
leaf_value=-0.0071802929607907469 0.060098915745891907 -0.042659250434765164 0.0052687787583186978 0.070548373956787341 0.018923173348937367 -0.032195312320672693 0.032918699511685981 -0.051155356766211538 -0.033045591091601538 0.021290741833132256 -0.02875119873663036 0.009449835432446381 0.046517054895480157 -0.017873786430869603 -0.0094585021034653306 -0.061593540052123252 0.032497301033337256 -0.0041265096931526147 0.0018361031161681176 0.052781578250256991 0.030424061766525179 0.0054183302508385954 0.0077311382909679167 -0.043613641605781905 -0.043145747943041018 0.029930008296641487 0.012486767175130864 -0.030663194909479382 0.0018553953426665222 0.029493149430640287
leaf_weight=469.32073777914047 137.02525150775909 191.52720077335835 367.38017043471336 64.66054679453373 285.32637794315815 139.39796581864357 206.51329661905766 220.94073940813541 122.75514340400696 246.41003519296646 335.55929331481457 389.75686994194984 175.14194089174271 199.55514837801456 621.10407409071922 80.668488368391991 62.316870972514153 109.38321161270142 295.59625382721424 52.691873416304588 328.84828665852547 594.25957264006138 121.42732708156109 186.86099906265736 82.724181830883026 32.90692862868309 136.28317271173 183.69397279620171 165.77955287694931 228.87733471393585
leaf_count=1881 554 767 1476 261 1147 558 832 884 492 990 1345 1565 705 800 2490 323 250 438 1186 213 1324 2385 488 748 331 132 546 736 665 921
internal_value=0 -0.0042858 0.00966157 0.000633282 0.00804597 -0.00954319 0.000381194 -0.0294281 0.00327489 -0.00436267 -0.0118164 -0.000728525 0.0139719 0.00377922 0.00614315 -0.0230379 -0.0195934 -0.0133839 0.0146201 9.96334e-05 0.0171503 0.0092759 0.0306365 -0.0290337 -0.0125697 -0.0022179 -0.00834836 -0.0214576 -0.0136982 0.0385368
internal_weight=0 4733.38 2101.31 3749.74 2169.47 1580.27 1054.15 526.118 1875.93 1094.48 848.071 512.512 781.451 484.882 1964.28 983.641 902.972 711.445 502.11 1268.06 696.228 646.951 296.569 296.244 552.045 415.201 352.884 216.601 305.178 293.538
internal_count=27433 18991 8442 15051 8714 6337 4230 2107 7532 4392 3402 2057 3140 1947 7888 3940 3617 2850 2018 5088 2800 2598 1193 1186 2212 1664 1414 868 1223 1182
is_linear=0
shrinkage=0.05


Tree=4
num_leaves=31
num_cat=0
split_feature=0 11 11 0 43 64 0 6 0 0 6 50 0 43 43 0 6 0 43 35 6 0 50 37 50 43 0 43 35 0
split_gain=102.295 160.718 135.87 76.9694 139.613 118.018 70.0659 65.4399 73.3749 63.191 88.2011 61.8829 59.0347 51.1464 49.18 86.0968 47.9447 52.6798 46.8996 41.8348 41.7744 47.9422 40.964 38.6945 44.8966 50.3984 41.0118 37.8099 35.8881 38.6632
threshold=0.51263320446014415 0.28699198365211492 0.20343030989170077 -0.75268971920013417 -0.33776336908340449 -0.85841825604438771 -1.4027293324470518 -0.21453732252120969 -0.11696537956595419 0.21665383875370028 -0.19840650260448453 -0.70267942547798146 -0.39995902776718134 -0.76550137996673573 0.96834525465965282 0.73831912875175487 0.40435716509819036 1.0639594793319704 0.29873520135879522 -0.12410064041614531 0.52747350931167614 1.319177031517029 -0.91633132100105275 0.181530736386776 0.14368999749422076 0.27923978865146643 0.32375387847423559 0.14315034449100497 -0.63075730204582203 -0.42688311636447901
decision_type=2 2 2 2 2 2 2 2 2 2 2 2 2 2 2 2 2 2 2 2 2 2 2 2 2 2 2 2 2 2
left_child=1 3 -2 5 7 6 -1 -5 13 10 12 -7 -6 -9 16 -16 -4 -18 -14 -11 -17 -22 -8 -3 -25 26 -26 -12 -15 -30
right_child=2 23 14 4 9 11 22 8 -10 19 27 -13 18 28 15 20 17 -19 -20 -21 21 -23 -24 24 25 -27 -28 -29 29 -31
leaf_value=-0.01193824440762338 0.057506818502691119 -0.0002021382690877468 0.033598861056240895 0.041413583467167968 -0.017980689806277501 -0.014237881791168049 0.031082300751219285 0.021927423598094922 0.03851546987623234 0.051725184202805211 -0.017283415763273004 -0.049547258265771062 0.025809508495664671 0.050999590008089027 -0.052353325074902646 0.016450546636746052 -0.0014241929225793154 0.029188723005792866 -0.0093267210790991557 0.0063968344931095295 -0.027888052813146515 0.0032460341502744822 0.0018786696014140949 -0.015543651729697142 -0.047130663349152585 -0.06368578078074677 0.0093787140952743073 -0.048667804362556466 -0.039944973136612799 -0.0016611383589358181
leaf_weight=552.18033264577389 136.06557209789753 103.63389305770397 238.04899968206882 258.90944604575634 220.05437198281288 296.24780640006065 204.89605715870857 196.89091485738754 189.27602910995483 60.444280803203583 462.00127200782299 213.52766282856464 280.9494815915823 21.901795387268066 77.299949556589127 344.66631352901459 480.82308040559292 198.56802091002464 143.47245495021343 322.44414640963078 169.97545267641544 453.65791174769402 290.08250851929188 203.00771866738796 73.671639025211334 172.32350470125675 56.910173118114471 121.12652003765106 102.88318318128586 183.70445939898491
leaf_count=2212 554 415 957 1046 882 1187 828 794 762 243 1851 855 1132 88 310 1386 1932 799 576 1295 682 1822 1164 813 295 690 228 485 412 738
internal_value=0 -0.00407314 0.00918933 -0.000528686 0.00479607 -0.00929783 0.000307065 0.0199587 0.0119621 -0.00418164 -0.00971291 -0.0290278 0.00303551 0.00201723 0.00584027 -0.00157293 0.014289 0.00752315 0.013932 0.0135525 0.0024809 -0.00523977 0.0139675 -0.0280363 -0.033738 -0.0459319 -0.0225027 -0.0238025 -0.0106903 -0.0154048
internal_weight=0 4730.54 2099.11 4120.99 2564.06 1556.93 1047.16 953.566 694.656 1610.49 1227.6 509.775 644.476 505.38 1963.04 1045.6 917.44 679.391 424.422 382.888 968.3 623.633 494.979 609.547 505.913 302.905 130.582 583.128 308.489 286.588
internal_count=27433 18991 8442 16550 10304 6246 4204 3840 2794 6464 4926 2042 2590 2032 7888 4200 3688 2731 1708 1538 3890 2504 1992 2441 2026 1213 523 2336 1238 1150
is_linear=0
shrinkage=0.05


Tree=5
num_leaves=31
num_cat=0
split_feature=59 1 11 43 5 47 47 2 6 16 6 47 54 64 45 2 1 6 1 1 11 21 6 59 57 54 15 69 17 57
split_gain=28.1707 32.6663 63.3361 29.3601 31.7217 25.9168 21.0082 21.6011 19.6464 22.1851 22.9936 27.6663 22.2826 21.321 20.9058 19.5341 19.4054 20.4676 18.0383 17.8813 24.3881 23.5862 17.7164 17.3347 17.2477 18.3135 17.7531 17.6259 16.8882 16.8466
threshold=1.311889708042145 -0.049860205501317971 0.28038004040718084 -0.6614076793193816 0.19525501132011416 1.756588935852051 -1.23270708322525 1.0245352387428286 -0.24908781051635739 0.9894905984401704 -2.2440540790557857 -0.51565219461917866 -0.14900187402963636 -1.6614011526107786 0.98065666854381572 -0.20926667004823682 -0.81232902407646168 -1.6215042471885679 0.40514171123504644 1.0387381911277773 -0.17350371181964871 -1.5920522809028623 0.37638188898563391 -1.1597970128059385 -1.6074891090393064 -0.87461388111114491 0.57727384567260753 -0.46678170561790461 -0.8410295546054839 -1.4256048798561094
decision_type=2 2 2 2 2 2 2 2 2 2 2 2 2 2 2 2 2 2 2 2 2 2 2 2 2 2 2 2 2 2
left_child=1 2 8 -3 19 6 -6 -8 9 10 12 14 -1 -10 16 -11 17 -12 -9 20 -5 -22 -7 -19 -13 28 -27 -28 -26 -18
right_child=-2 3 -4 4 5 22 7 18 13 15 11 24 -14 -15 -16 -17 29 23 -20 -21 21 -23 -24 -25 25 26 27 -29 -30 -31
leaf_value=-0.024927549859852422 -0.0095615588254349387 0.021250369650464743 -0.025128795023779505 0.013228507105715159 0.029162904109522266 -0.00078541659517272441 0.014239018490032243 -0.029555722827392241 0.04203469823949909 -0.0016231454316203301 0.048112425419341083 -0.073581222261789606 0.014307573439034368 -0.0070691229959124122 0.042695613941753655 -0.028585648928313064 -0.062504406510435095 0.024103919320411914 0.0035398110240712852 0.0066047086194008665 -0.049347642668563653 -0.0056082360608293831 -0.062768873343265405 -0.017571306814319242 0.039261354022364081 0.0064395779209774949 0.003372413801626107 -0.023121672289781004 0.002644148647492732 0.03124497165014924
leaf_weight=109.07722476124763 691.69766922295094 246.79803043603897 282.76578311622143 174.98300191760063 151.81857931613922 28.866498574614525 575.89457175135612 52.096210822463036 22.625315546989441 284.00140395760536 19.927342310547829 7.2278752774000159 54.153065249323845 963.7181671410799 78.191828548908234 87.987621650099754 4.9856127202510825 34.102151572704315 196.33338062465191 573.16285216808319 31.76768858730793 1034.7173697799444 19.193374320864677 92.991173982620239 65.321158140897751 503.81569111347198 125.93425667285919 125.17159460484982 60.795261830091476 123.39265564084053
leaf_count=437 2780 996 1134 704 610 116 2315 209 91 1141 80 29 217 3873 315 354 20 137 789 2306 128 4160 77 374 263 2027 506 503 245 497
internal_value=0 0.00108281 -0.00259017 0.00470884 0.00327078 0.010306 0.0120709 0.00892296 -0.000283918 0.00285695 0.00573144 0.00805036 -0.011911 -0.00594275 0.0198789 -0.00800066 0.0134007 0.000998307 -0.00340039 -0.000700011 -0.00407247 -0.00691111 -0.0255394 -0.00638886 0.00334179 0.00397285 0.00102645 -0.0098344 0.0216098 0.0276042
internal_weight=0 6131.82 3046.19 3085.63 2838.83 1024.2 976.143 824.324 2763.42 1777.08 1405.09 1241.86 163.23 986.343 353.591 371.989 275.399 147.021 248.43 1814.63 1241.47 1066.49 48.0599 127.093 888.266 881.038 754.922 251.106 126.116 128.378
internal_count=27433 24653 12243 12410 11414 4116 3923 3313 11109 7145 5650 4996 654 3964 1423 1495 1108 591 998 7298 4992 4288 193 511 3573 3544 3036 1009 508 517
is_linear=0
shrinkage=0.05


Tree=6
num_leaves=31
num_cat=0
split_feature=0 43 11 0 43 11 50 0 0 64 0 37 11 50 43 0 50 0 79 50 50 43 0 0 50 0 50 50 64 50
split_gain=93.3367 140.831 127.291 64.2283 144.371 126.512 82.5941 100.516 72.1142 52.1062 79.813 51.7125 46.4968 44.7329 43.4803 74.5641 41.4234 50.6695 40.4482 36.142 36.0926 35.8746 43.6878 35.0622 31.5407 45.0275 30.8444 30.7954 30.5995 30.5824
threshold=0.53293925523757946 0.45903177559375768 0.22616096585989001 -0.64912468194961537 -0.58240580558776844 -0.33681771159172053 0.071200542151927962 -0.076364506036043153 -0.14888629317283628 -0.77298220992088307 -1.4584082961082456 0.181530736386776 -0.058113681152462952 -0.91633132100105275 0.96834525465965282 0.73831912875175487 0.45770196616649633 1.0639594793319704 1.0000000180025095e-35 0.15194332599639895 -1.1190807223320005 -0.21937000751495359 0.32375387847423559 -1.0198361873626707 0.98075836896896373 1.4946786761283877 0.37805190682411199 -0.20720555633306501 -1.3224565386772154 -0.58656281232833851
decision_type=2 2 2 2 2 2 2 2 2 2 2 2 2 2 2 2 2 2 2 2 2 2 2 2 2 2 2 2 2 2
left_child=1 3 -2 5 -5 9 8 -8 18 10 28 -3 -10 -12 16 -16 -4 -18 27 -13 -7 -9 26 -11 -17 -26 -23 -6 -1 -25
right_child=2 11 14 4 6 20 7 21 12 23 13 19 -14 -15 15 24 17 -19 -20 -21 -22 22 -24 29 25 -27 -28 -29 -30 -31
leaf_value=-0.0055827519768793842 0.05427123381135375 -0.010249782527006753 0.033977194848867263 0.03062435085339002 0.010752392151588889 0.010984162332954225 -0.045620454210067954 0.016900089750042934 0.044153763983056836 -0.038845400572896566 0.028686617446688857 -0.025171398106989686 0.011433850476641978 0.0021365033588099515 -0.049941323022426709 0.012783893838900124 -0.0011952006900037453 0.028971807668352528 -0.023614759816434405 -0.060654922538493861 -0.056457921150441459 -0.0090326659135917409 0.0069399612265592416 0.0057362618037860892 -0.024333192394690274 0.0053126342851824229 -0.038628633755974105 -0.020130024725850251 -0.032668477963858009 -0.031362024386631771
leaf_weight=381.07880738377571 144.00063948333263 212.66539433598518 196.75123830139637 429.19196678698063 393.72276966273785 22.698987573385239 181.12527053058147 159.40271724760532 163.59345641732216 147.07901592552662 271.94312746822834 144.60476697981358 322.85879737138748 380.80402417480946 73.429101526737213 412.73147110641003 464.1508741825819 198.81802809238434 173.80326326191425 142.46170817315578 157.39049780368805 227.78722320497036 238.90094950795174 151.91780650615692 201.40772120654583 351.81547595560551 143.48887139558792 101.54325994849205 143.55360931158066 87.577240064740181
leaf_count=1526 590 853 793 1736 1584 91 726 641 660 589 1101 579 1298 1530 294 1661 1865 802 697 572 632 913 959 610 808 1413 575 408 575 352
internal_value=0 -0.00381991 0.00894857 -0.000886887 0.00419345 -0.00827247 -0.00119246 -0.0121083 0.00778857 -0.00370275 0.00152676 -0.0289369 0.0224375 0.0131976 0.00551195 -0.00136875 0.0138306 0.0078516 -0.00286208 -0.0427807 -0.0479573 -0.00422103 -0.00973872 -0.0196301 0.0023236 -0.00548029 -0.0204708 0.00442064 -0.0129941 -0.00782964
internal_weight=0 4779.19 2043.1 4279.46 2535.42 1744.04 2106.23 950.705 1155.52 1563.95 1177.38 499.732 486.452 652.747 1899.1 1039.38 859.72 662.969 669.069 287.066 180.089 769.58 610.177 386.574 965.955 553.223 371.276 495.266 524.632 239.495
internal_count=27433 19207 8226 17203 10197 7006 8461 3814 4647 6283 4732 2004 1958 2631 7636 4176 3460 2667 2689 1151 723 3088 2447 1551 3882 2221 1488 1992 2101 962
is_linear=0
shrinkage=0.05


Tree=7
num_leaves=31
num_cat=0
split_feature=0 43 0 50 64 0 64 6 0 6 6 43 0 43 0 50 0 6 64 50 0 0 60 6 6 43 0 43 43 50
split_gain=85.5161 142.599 125.109 114.055 106.122 87.1192 81.4455 76.8361 73.9799 61.016 57.7502 57.2934 53.6515 52.2853 62.6992 51.7844 51.0579 46.4389 39.2548 37.7307 40.5435 35.9312 35.5676 35.2623 35.0802 34.2831 36.544 34.1457 33.8745 33.8405
threshold=0.40309281647205358 -0.1725482568144798 -0.64912468194961537 0.37805190682411199 0.62405952811241161 -0.39995902776718134 -0.87436771392822255 -0.26701334118843073 -1.2984556555747984 -0.20730163156986234 -0.47369039058685297 0.54395827651023876 0.19647206366062167 -0.75145521759986866 -0.11696537956595419 0.81728336215019237 0.82463130354881298 0.3958332240581513 0.28721795976161962 -0.97979867458343495 -1.6509147286415098 1.0639594793319704 -0.39183646440505976 0.69945254921913158 -0.61986371874809254 0.19555746018886569 0.84786167740821849 -1.6217147707939146 0.96834525465965282 -0.78363290429115284
decision_type=2 2 2 2 2 2 2 2 2 2 2 2 2 2 2 2 2 2 2 2 2 2 2 2 2 2 2 2 2 2
left_child=1 2 6 5 15 24 8 11 19 -4 -8 -7 -9 -11 23 25 28 -18 -14 20 27 -17 -19 -15 -3 -2 -27 -1 -6 -10
right_child=4 3 9 -5 16 7 10 12 29 13 -12 -13 18 14 -16 21 17 22 -20 -21 -22 -23 -24 -25 -26 26 -28 -29 -30 -31
leaf_value=-0.0027809018181696927 0.051978560139116572 -0.025951775118149285 0.034142464089983587 -0.046375673120889381 -0.0075129664722059578 0.021171923069153775 -0.0087819507309308594 -0.027599015472969907 0.031781417274489951 0.031030523464892875 -0.040826086084227158 -0.016122894458558693 0.021874028434291367 -0.0075866834575008292 0.018562740662822704 -0.0070509047554401412 0.023341960515406466 0.013713108905907174 -0.017749845758723085 -0.03733211194123031 0.016760014758011765 0.038083701251157953 -0.0072130755391104353 -0.066508352998508977 -0.070762249209649075 0.016055697426172372 0.052817012606097724 -0.036536766482796197 -0.042626387878118122 0.0047363198996066662
leaf_weight=232.87718659639359 143.07897578179836 130.80975352227688 308.26675264537334 259.62290921807289 281.87017753720284 345.07222878932953 366.67875231802464 397.11576189100742 210.97161641716957 196.58209052681923 228.04981017112732 146.78257930278778 124.42064245045185 350.71528631448746 307.0369543582201 190.36165490746498 270.64777912199497 304.57577908039093 125.60713136196136 101.55713318288326 161.15717180073261 57.388946682214737 609.19266490638256 27.374125704169273 65.568657532334328 329.68131086230278 85.043186202645302 110.44728255271912 90.81570865213871 256.03476402163506
leaf_count=932 583 524 1250 1042 1133 1392 1472 1592 857 798 917 588 500 1407 1237 766 1091 1224 504 407 649 233 2448 110 263 1332 347 442 364 1029
internal_value=0 -0.00407535 0.00260935 -0.0160523 0.00769327 -0.0101568 -0.00622761 -0.00485396 0.00199833 0.0149945 -0.0210693 0.0100422 -0.0161756 0.00829993 0.00177788 0.022426 7.13833e-05 0.0051502 0.00196808 -0.00952636 -0.00392878 0.00340407 -0.000237995 -0.0118527 -0.0409135 0.0308747 0.023594 -0.0136401 -0.0160694 0.016954
internal_weight=0 4452.75 2857.75 1595 2362.66 1335.38 1667.77 1139 1073.05 1189.98 594.729 491.855 647.144 881.708 685.126 805.554 1557.1 1184.42 250.028 606.039 504.482 247.751 913.768 378.089 196.378 557.803 414.724 343.324 372.686 467.006
internal_count=27433 17912 11507 6405 9521 5363 6705 4576 4316 4802 2389 1980 2596 3552 2754 3261 6260 4763 1004 2430 2023 999 3672 1517 787 2262 1679 1374 1497 1886
is_linear=0
shrinkage=0.05


Tree=8
num_leaves=31
num_cat=0
split_feature=0 11 11 0 11 11 0 43 5 64 6 50 64 0 0 50 60 0 50 0 43 6 0 37 50 0 0 50 50 43
split_gain=77.5261 123.34 111.778 90.6253 105.962 82.4033 73.2658 62.8658 54.777 49.1286 46.5248 42.42 40.9777 43.9905 40.7097 44.3903 40.26 42.1916 48.6674 40.1403 37.7447 38.2781 38.6284 47.4273 37.0232 47.7567 35.628 33.7915 32.4982 31.7927
threshold=0.53293925523757946 0.1492218300700188 0.218848392367363 -0.39995902776718134 -0.38133494555950159 -0.18962872773408887 -1.0747236609458921 -0.9557080566883086 -0.31402239203453058 -0.81520569324493397 -0.18921082466840741 -0.23461069166660306 0.86594176292419445 0.82463130354881298 -0.0094483327120542509 0.78924304246902477 -0.27753500640392298 0.076946929097175612 -0.037932835519313805 1.2542669773101809 0.45903177559375768 -0.42711848020553583 0.19647206366062167 0.14281542599201205 -0.13637942820787427 -0.067910198122262941 -0.80326989293098439 0.91594022512435924 0.70097649097442638 0.90558117628097545
decision_type=2 2 2 2 2 2 2 2 2 2 2 2 2 2 2 2 2 2 2 2 2 2 2 2 2 2 2 2 2 2
left_child=1 3 -2 4 6 24 9 10 -9 -1 -8 26 13 -4 -3 20 -7 18 -18 29 -16 -22 -23 -24 -5 -26 -6 -15 -21 -14
right_child=2 14 12 5 11 16 7 8 -10 -11 -12 -13 19 27 15 -17 17 -19 -20 28 21 22 23 -25 25 -27 -28 -29 -30 -31
leaf_value=-0.0043333766864381224 0.052474032262948472 -0.039308846365496336 0.0013918306492623806 0.042565698427850872 -0.042987861824062237 0.018600187441498713 0.058777537784101358 -0.019547431416839248 0.013735553791869005 -0.036373325929960579 0.013847926543771844 -0.049281657664772702 0.0026906181443170419 0.0384307728717889 -0.00055011823510034126 -0.049207905093721159 0.0020040908623521238 0.0087340041451979284 -0.033439554656314721 0.044954394963490241 0.0037560738950532034 -0.078088711775141734 0.015521488790600824 -0.040636451527085275 -0.0012468631193892122 0.040707583146980669 -0.0076351775598314763 0.0099266041929590709 0.0037244812465714568 -0.023370894666959619
leaf_weight=818.98810790479183 133.05846105515957 196.3923392444849 378.57366624474525 214.06500464677811 96.386219009757042 265.75940127670765 101.37965834140778 188.06807538866997 360.75128962099552 140.1126249730587 133.48050996661186 138.59814056754112 206.28226844966412 219.57304215431213 430.85239011049271 80.784451246261597 197.07742719352245 339.22851917147636 190.43808282911777 52.08196072280407 92.90059956908226 41.294623777270317 52.647294297814369 131.50982509553432 174.52101892232895 110.95214602351189 273.45728649199009 197.4974127560854 580.51953059434891 270.44206024706364
leaf_count=3293 554 789 1524 870 388 1073 411 759 1456 562 539 558 828 892 1729 325 794 1366 764 213 372 166 211 529 704 449 1100 797 2333 1085
internal_value=0 -0.00348288 0.00816763 0.000727368 -0.00560623 0.0102836 0.000252929 0.0115942 0.00233022 -0.00901401 0.0332422 -0.0256896 0.00507292 0.013732 -0.0188379 -0.013994 0.00194739 -0.00414228 -0.0154141 -0.00113763 -0.010197 -0.0232529 -0.0343824 -0.0245819 0.0268464 0.0150592 -0.0168486 0.0249331 0.00711893 -0.0120939
internal_weight=0 4769.65 2038.03 3743.26 2251.22 1492.04 1742.78 783.68 548.819 959.101 234.86 508.442 1904.97 795.644 1026.38 829.989 992.503 726.744 387.516 1109.33 749.205 318.352 225.452 184.157 499.538 285.473 369.844 417.07 632.601 476.724
internal_count=27433 19207 8226 15086 9066 6020 7020 3165 2215 3855 950 2046 7672 3213 4121 3332 3997 2924 1558 4459 3007 1278 906 740 2023 1153 1488 1689 2546 1913
is_linear=0
shrinkage=0.05


Tree=9
num_leaves=31
num_cat=0
split_feature=0 11 11 0 43 11 6 0 43 6 0 0 64 0 0 50 50 0 64 50 50 43 50 11 6 0 43 43 4 37
split_gain=71.559 130.286 100.442 52.5673 116.979 86.498 55.0282 52.0166 48.9623 47.0538 65.0505 46.938 40.0146 49.8477 41.1539 39.36 35.0726 34.4767 57.7251 38.1835 35.5147 32.1776 31.9747 30.737 30.6856 32.8005 29.7071 29.4662 29.2532 29.0631
threshold=0.40309281647205358 0.28699198365211492 0.20343030989170077 -0.75268971920013417 -0.33776336908340449 -0.419699877500534 -0.44830456376075739 -0.11696537956595419 -0.77997413277626026 -0.16421850025653836 -0.24977986514568326 0.21665383875370028 0.76416438817977916 0.82463130354881298 1.121712923049927 0.13572696596384051 0.91594022512435924 -1.4850728511810301 -1.2990108132362364 -1.1972418427467344 -0.78363290429115284 -0.070358745753765092 0.54225081205368053 -0.15060469508171079 0.948164463043213 -0.067910198122262941 0.27923978865146643 -2.011351346969604 -0.4840486198663711 0.19621475040912631
decision_type=2 2 2 2 2 2 2 2 2 2 2 2 2 2 2 2 2 2 2 2 2 2 2 2 2 2 2 2 2 2
left_child=1 3 -2 5 6 17 -5 8 -8 10 -6 21 14 -14 16 -3 -4 19 -19 -1 -20 24 -15 -9 25 -11 -12 -21 -13 -17
right_child=2 15 12 4 9 -7 7 23 -10 11 26 28 13 22 -16 29 -18 18 20 27 -22 -23 -24 -25 -26 -27 -28 -29 -30 -31
leaf_value=-0.0062735228435561773 0.039787258153736203 -0.013039569578718633 0.014245563729896233 0.045650618217791226 -0.01145857219900734 -0.039389253934120683 0.024390441476036744 0.057760801143614052 -0.0053238509690973655 -0.022248848668907681 0.031719125442039552 0.035332051005642393 -0.021978298333588553 0.025830070553428147 0.040301386332574712 -0.0051114928886460348 -0.011460450258810453 0.025303014896280781 0.0055523256391666019 0.0088126684477240532 -0.018463469835583481 -0.033703675824275241 -0.00025763075786523412 0.017059706030516535 -0.087987283022972429 0.012331516301163378 0.0036896014196954488 -0.051328053741166481 -0.0053499740966415389 -0.050511150845100328
leaf_weight=401.60363790392876 213.09612385928631 206.14248093962669 541.38013127446175 147.0496489405632 346.46552422642708 192.73017996549606 214.92080180346966 84.302187159657478 390.57350686192513 147.95216807723045 200.57699051499367 61.58730086684227 245.07215724885464 134.3754708468914 113.87791953980923 42.631182447075844 175.77075527608395 211.10079756379128 352.58956694602966 25.961604729294777 273.23586492240429 267.88947606086731 932.84443044662476 103.13511571288109 11.972517013549803 127.8155457675457 178.79364985227585 94.512246266007423 156.41446676850319 203.63817423582077
leaf_count=1608 883 827 2189 601 1393 778 876 345 1573 593 816 248 984 543 465 171 707 855 1424 104 1098 1074 3750 418 48 513 719 379 629 822
internal_value=0 -0.00372974 0.00704889 -0.000847249 0.00372932 -0.00804198 0.0175582 0.0123484 0.00522327 -0.00493969 0.00420454 -0.013519 0.00379394 -0.00164268 0.012379 -0.0291591 0.00794512 -0.00359639 0.00269354 -0.0136796 -0.00493299 -0.0212334 0.00302712 0.0353655 -0.00962339 -0.0062212 0.0185091 -0.038368 0.00614303 -0.0426521
internal_weight=0 4443.59 2356.42 3991.18 2439.45 1551.73 939.981 792.932 605.494 1499.47 725.836 773.631 2143.32 1312.29 831.029 452.412 717.151 1359 836.926 522.077 625.825 555.63 1067.22 187.437 287.74 275.768 379.371 120.474 218.002 246.269
internal_count=27433 17912 9521 16092 9846 6246 3813 3212 2449 6033 2928 3105 8638 5277 3361 1820 2896 5468 3377 2091 2522 2228 4293 763 1154 1106 1535 483 877 993
is_linear=0
shrinkage=0.05


Tree=10
num_leaves=31
num_cat=0
split_feature=0 43 64 0 50 79 43 64 0 0 6 6 6 0 43 0 43 50 0 4 43 43 59 6 6 0 50 43 0 50
split_gain=64.7846 110.034 77.8408 50.3002 116.308 98.5244 61.0348 57.1295 79.5619 50.7171 48.2962 47.0877 46.4631 45.3017 45.1005 57.1545 41.3117 38.8656 37.4415 33.6135 33.5183 32.031 31.6494 35.5194 31.5154 31.2156 42.0292 29.328 28.8977 39.2277
threshold=0.51263320446014415 0.45903177559375768 0.59947153925895702 -0.39995902776718134 0.071200542151927962 1.0000000180025095e-35 -0.28936360776424402 -0.78766828775405873 -1.2984556555747984 -1.0198361873626707 0.10421356558799745 0.948164463043213 -0.29154752194881434 0.16148073226213458 -0.65049046277999867 0.04120923392474652 -0.60692405700683583 -0.97979867458343495 -1.6509147286415098 0.5684700906276704 0.046665532514452941 -1.6217147707939146 0.15816465020179751 -0.3265464305877685 0.74065917730331432 -0.73680651187896717 -0.78363290429115284 -0.039925558492541306 1.2804734706878664 0.70097649097442638
decision_type=2 2 2 2 2 2 2 2 2 2 2 2 2 2 2 2 2 2 2 2 2 2 2 2 2 2 2 2 2 2
left_child=1 3 11 5 6 7 -5 8 17 -9 -3 -2 -8 -14 -6 24 -7 18 21 22 -17 -1 23 -11 27 26 -10 -16 -4 -30
right_child=2 10 28 4 14 16 12 9 25 19 -12 -13 13 -15 15 20 -18 -19 -20 -21 -22 -23 -24 -25 -26 -27 -28 -29 29 -31
leaf_value=-0.0018022969023605284 0.032009298086190428 -0.017352352519186987 -0.0049646010072760252 0.036145356809246125 0.031329860205745928 -0.020448575329698987 0.023385586540063681 -0.037067743732074297 0.025648058727806729 0.020566641649071269 -0.05524161363371613 0.00099802087718135063 -0.014162018135313873 0.025724216575568889 -0.01107626571543255 0.010906406061429324 -0.067052596936230086 -0.036157065504279183 0.015987839017131512 -0.036971479163574655 -0.012110814398786758 -0.034092477865749787 -0.016958561468505166 -0.012564639065669495 -0.07052115661772286 0.036393200661603113 -0.0037088620824370431 -0.049165133066477178 0.049098830351681139 0.0053591202458034099
leaf_weight=233.42086641490459 411.86429032683372 364.72207002341747 826.13926808536053 302.8630852997303 71.934422805905342 115.74561089277267 304.77280429005623 171.57301171123981 234.0844898223877 204.64822643995285 109.31224916875362 174.17206400632858 258.87009397149086 98.190191432833672 179.95896734297276 295.90510277450085 80.709710776805878 106.07343930006027 173.88332977890968 78.908553496003151 339.79436945915222 114.46250694990158 217.99631203711033 133.7781658321619 38.218627378344536 150.62977784872055 254.43841274082661 70.274603366851807 55.897980213165283 617.83464160561562
leaf_count=934 1693 1467 3325 1235 294 469 1238 691 955 828 444 708 1040 396 723 1193 326 426 701 318 1365 458 876 540 154 615 1022 283 231 2485
internal_value=0 -0.00324578 0.00734042 -0.000686478 0.00517974 -0.00575282 0.0175538 -0.00254704 0.00407559 -0.0129458 -0.0260896 0.0227926 0.00904614 -0.00319346 -0.00680442 -0.00977273 -0.0395949 -0.00856634 -0.00295723 -0.00643163 -0.00139677 -0.0124266 -0.00210065 0.00747002 -0.0282319 0.0164938 0.010358 -0.021773 0.00130286 0.0089881
internal_weight=0 4705.17 2085.91 4231.13 1960.78 2270.35 964.696 2073.9 1266.99 806.904 474.034 586.036 661.833 357.06 996.086 924.152 196.455 627.84 521.767 635.331 635.699 347.883 556.423 338.426 288.452 639.153 488.523 250.234 1499.87 673.733
internal_count=27433 18991 8442 17080 7921 9159 3909 8364 5111 3253 1911 2401 2674 1436 4012 3718 795 2519 2093 2562 2558 1392 2244 1368 1160 2592 1977 1006 6041 2716
is_linear=0
shrinkage=0.05


Tree=11
num_leaves=31
num_cat=0
split_feature=59 22 1 4 11 11 49 1 1 4 8 59 4 11 22 4 15 58 35 74 28 10 5 2 15 54 41 52 37 78
split_gain=26.302 24.6855 24.0741 53.7005 59.6838 31.5965 27.6575 22.1061 21.1574 24.8626 21.38 19.7783 19.4042 17.4639 16.923 16.8173 16.8764 19.7802 16.7228 18.7145 22.6991 15.0279 14.4978 16.439 14.8631 14.3494 15.9306 14.3261 17.7876 16.346
threshold=1.311889708042145 1.0000000180025095e-35 -0.049860205501317971 -0.067929390817880617 -0.32655197381973261 0.28699198365211492 1.0000000180025095e-35 -0.44716519117355341 -1.0033455491065977 -0.44142408668994898 -2.1819487810134883 -1.1446617841720579 0.15200582891702655 -0.15060469508171079 1.0000000180025095e-35 1.2692429423332217 0.74799495935440075 0.37207128107547766 -0.70290097594261158 -1.5587888956069944 -0.46079659461975092 -1.4226802587509153 0.088488776236772551 -0.73050624132156361 -0.34016126394271845 -0.39417074620723719 1.0933231115341189 -0.088146410882472978 0.19621475040912631 0.36931690573692327
decision_type=2 2 2 2 2 2 2 2 2 2 2 2 2 2 2 2 2 2 2 2 2 2 2 2 2 2 2 2 2 2
left_child=1 2 3 5 7 8 21 12 -1 -10 -11 13 -5 -3 -2 16 17 -9 19 -14 -21 -4 24 -24 -8 -12 27 28 29 -27
right_child=14 11 6 4 -6 -7 22 15 9 10 25 -13 18 -15 -16 -17 -18 -19 -20 20 -22 -23 23 -25 -26 26 -28 -29 -30 -31
leaf_value=-0.00059582193280605837 -0.0077467474591317257 0.026171914391880064 0.080789615716522808 0.0042645874882514135 -0.033745822775766945 -0.016161993741341925 0.0056221862650485815 0.0273359600728195 0.017650477846911098 0.067499597760463867 0.012337555845613225 -0.0095846335623286372 -0.039827061494224027 -0.012402317913848248 -0.049975815110493468 -0.072302150225036041 -0.01691681071346178 -0.032011146539578157 -0.04821851744044002 0.028956319998962834 -0.041923847783301535 0.0089105866468918733 0.084178653721066865 0.0058179173154163082 -0.012202866804971209 -0.033309104650712372 0.035424607653112963 0.011847060843424663 0.02434085646060211 0.0013444741501760708
leaf_weight=818.40998841822147 664.17816077172756 78.809765979647636 7.3012055009603491 100.82694742083549 232.38098898530006 190.73106488585472 170.62646682560444 129.70073294639587 522.44047571718693 11.804267928004263 136.64006644487381 773.46150204539299 35.422627151012421 46.74558462202549 24.603140234947205 5.9319867342710486 36.980218827724457 15.74452184140682 48.538024604320526 36.660470426082611 16.325306251645088 1796.7773666232824 6.8836269080638877 241.61749523878098 371.72651690244675 117.89443854987621 19.812466338276863 52.591849729418755 22.21283321082592 47.837577223777771
leaf_count=3301 2681 319 30 407 940 770 691 526 2122 48 554 3124 142 189 99 24 150 64 196 148 66 7283 28 975 1502 477 80 213 90 194
internal_value=0 0.00105299 0.00237709 -0.00102441 -0.0133619 0.0031626 0.00578378 -0.00224598 0.0052692 0.0104237 0.00118772 -0.00659665 -0.0123819 0.0118103 -0.00925516 0.0105492 0.0132433 0.0209116 -0.0246379 -0.0116917 0.00711762 0.00920149 -0.0020126 0.00798856 -0.00659503 -0.000784027 -0.00767068 -0.0112203 -0.0176752 -0.0233066
internal_weight=0 6092.84 5193.82 2598.89 658.512 1940.38 2594.93 426.131 1749.64 931.234 408.793 899.017 237.773 125.555 688.781 188.357 182.425 145.445 136.946 88.4084 52.9858 1804.08 790.854 248.501 542.353 396.989 260.349 240.537 187.945 165.732
internal_count=27433 24653 21021 10512 2663 7849 10509 1723 7079 3778 1656 3632 959 508 2780 764 740 590 552 356 214 7313 3196 1003 2193 1608 1054 974 761 671
is_linear=0
shrinkage=0.05


Tree=12
num_leaves=31
num_cat=0
split_feature=0 11 11 0 11 11 0 0 43 5 50 64 6 0 50 0 60 6 6 0 43 6 64 50 0 64 43 43 43 6
split_gain=60.344 113.121 88.7425 71.3376 65.9441 60.0324 76.9309 55.029 49.0584 53.5144 48.9605 45.5187 40.5341 40.0572 39.016 37.1353 36.9833 39.3821 36.9449 35.8428 50.9574 33.4305 32.783 31.8766 32.4046 28.0425 27.4854 26.9831 26.6815 25.2462
threshold=0.40309281647205358 0.12058700993657114 0.20343030989170077 -0.14888629317283628 -0.19537954032421109 -0.38133494555950159 -1.0198361873626707 -0.56880536675453175 -0.9557080566883086 -0.31402239203453058 0.37805190682411199 -1.2990108132362364 -0.15735360234975812 -1.6509147286415098 0.063292905688285842 -0.38824367523193354 -0.40078131854534144 0.38652320206165319 -0.18921082466840741 0.84786167740821849 1.0000874996185305 1.0000000180025095e-35 -0.083874039351940141 -1.1972418427467344 -1.7343685030937193 0.86594176292419445 0.54395827651023876 1.0000000180025095e-35 0.25025115907192236 -0.20730163156986234
decision_type=2 2 2 2 2 2 2 2 2 2 2 2 2 2 2 2 2 2 2 2 2 2 2 2 2 2 2 2 2 2
left_child=1 3 -2 5 -5 6 11 21 18 -10 15 13 -6 -1 22 -3 28 19 -8 20 -18 -7 -9 24 -13 -21 29 -12 -4 -17
right_child=2 10 16 4 12 7 8 14 9 -11 27 23 -14 -15 -16 26 17 -19 -20 25 -22 -23 -24 -25 -26 -27 -28 -29 -30 -31
leaf_value=-0.0086174724935967582 0.037447685897925014 -0.063169690566041506 0.04216620560846325 0.039351613415222315 0.027926738447934335 -0.023928073652479981 0.059759290690994463 0.0095474815641649023 -0.01221516435002826 0.017739117594678822 -0.013481556028426071 -0.042232676201292521 -0.0020939578350156972 0.019437436458719964 -0.031204679777562718 0.014594217469200253 0.014403648628411252 -0.0063160862567622367 0.017508058917830908 0.052592979912538279 -0.032176907110680511 -0.068517255512375919 -0.017177004327615094 -0.029103942096747378 0.0059208222960527111 0.013590322518193905 -0.027077512489151315 -0.052687747510284134 0.0098729365771528313 -0.011424397529045262
leaf_weight=307.50459615886211 210.63496816158295 34.865933626890182 72.130420625209808 191.12841179966927 150.97555707395077 236.38544861972332 82.602923408150673 339.66040016710758 246.80148069560528 376.67098240554333 62.860224857926369 43.664626553654671 440.51294550299644 217.03469605743885 119.5025669336319 134.08659768104553 177.29344069957733 1031.6010014414787 138.47028581798077 69.651215642690659 87.784703776240349 51.128396615386009 173.30628415942192 284.2081465870142 174.80082282423973 136.21478559076786 171.82361483573914 145.38764034211636 564.86388435959816 305.99706518650055
leaf_count=1231 883 142 292 785 614 956 340 1372 1000 1529 253 175 1776 880 481 540 716 4160 564 286 353 208 700 1147 706 551 692 591 2280 1230
internal_value=0 -0.00343011 0.00648201 0.000477941 0.0138191 -0.00326202 0.0018783 -0.0137203 0.0130576 0.00588172 -0.0197674 -0.00731299 0.00556873 0.0029906 -0.0054754 -0.0129782 0.00343347 -0.000846751 0.033295 0.0111338 -0.00102222 -0.0318573 0.000518588 -0.0180648 -0.0037036 0.0267862 -0.0101184 -0.0408532 0.0135297 -0.00349693
internal_weight=0 4429.38 2350.17 3574.36 782.617 2791.74 1871.76 919.983 844.546 623.472 855.021 1027.21 591.489 524.539 632.469 646.773 2139.54 1502.55 221.073 470.944 265.078 287.514 512.967 502.674 218.465 205.866 611.907 208.248 636.994 440.084
internal_count=27433 17912 9521 14464 3175 11289 7572 3717 3433 2529 3448 4139 2390 2111 2553 2604 8638 6066 904 1906 1069 1164 2072 2028 881 837 2462 844 2572 1770
is_linear=0
shrinkage=0.05


Tree=13
num_leaves=31
num_cat=0
split_feature=59 47 60 10 47 3 59 69 76 6 19 64 3 57 69 2 35 78 6 2 75 21 9 50 2 6 43 6 78 9
split_gain=24.1677 22.7842 25.4318 25.5903 21.6323 25.1544 20.4275 26.2018 20.3811 18.502 17.4319 15.9171 22.3147 16.4831 25.0082 19.6556 16.1363 15.6961 15.4067 18.7255 16.7715 15.3953 14.3851 14.1425 13.9849 13.8166 12.5865 12.5191 12.325 11.8305
threshold=1.311889708042145 -0.6843782067298888 -0.34779255092144007 1.2436770200729372 -0.86521068215370167 -0.29872474074363703 -1.1597970128059385 0.34336255490779882 0.77960187196731578 2.9885634183883671 -0.096678350120782838 -0.85841825604438771 -0.14367071539163587 0.31488011777400976 1.0000000180025095e-35 0.2492514252662659 -0.78430816531181324 -0.88482907414436329 0.64996901154518139 0.2492514252662659 -0.69871529936790455 -1.0618093609809873 -0.19483851641416547 -0.97979867458343495 -2.2686257362365718 -2.133434414863586 0.22112435102462771 -2.8095016479492183 -1.330653131008148 1.8705788850784304
decision_type=2 2 2 2 2 2 2 2 2 2 2 2 2 2 2 2 2 2 2 2 2 2 2 2 2 2 2 2 2 2
left_child=1 2 8 4 5 6 -4 25 10 11 -1 12 13 15 27 22 -14 -18 20 -20 26 -22 -3 -17 -13 -8 -7 -15 -9 -23
right_child=-2 9 3 -5 -6 18 7 28 -10 -11 -12 24 16 14 -16 23 17 -19 19 -21 21 29 -24 -25 -26 -27 -28 -29 -30 -31
leaf_value=0.022798859413864732 -0.0088742095903130754 0.019377667455416799 0.016072454945343286 -0.034762095731735491 0.023183508321904491 0.08695650901384222 -0.057105860297501414 -0.064339561746241475 0.024734079572346458 -0.063655276172428318 -0.0034923868543150099 -0.086115742221285929 -5.3071779598582034e-05 0.075434589674818628 -0.048105069406664522 0.011342573074322878 0.020003417599498741 -0.046502063376180458 -0.043496371321739398 0.034911141876710114 0.064660164263370248 0.015591723797333801 0.071267749073309294 -0.044884176368025115 -0.0020903878117715029 -0.011169829014805271 0.023643365058861294 0.0040262211121191854 0.012192161633440357 -0.036040524587807453
leaf_weight=95.481807664036751 688.26157543063164 275.31804026663303 116.35484091937542 46.230213895440102 120.48772357404232 16.755312487483028 16.981631726026535 5.4289097338914862 266.71631094813347 11.697157338261603 185.59713640809059 4.9589808881282798 103.66053578257561 6.238536834716796 23.351093590259552 25.301900446414948 11.055358678102492 44.921236723661423 19.704750910401344 12.410896956920622 14.019567742943762 80.343759834766388 14.03718490898609 20.04243104159832 3513.8352386653423 454.07119107246399 14.768841102719305 380.24957993626595 169.79962007701397 12.87168814241886
leaf_count=387 2780 1119 472 186 489 68 68 22 1081 47 752 20 418 25 95 103 45 182 80 50 57 326 57 81 14246 1841 60 1536 688 52
internal_value=0 0.00101105 0.00603086 0.00164813 0.00324515 0.000671717 -0.00321334 -0.00668551 0.0148334 -0.00085443 0.00543868 -0.000688344 0.00522885 0.00886601 0.00214295 0.0170984 -0.0117347 -0.0333673 0.0180112 -0.0131963 0.0252342 0.0158092 0.021895 -0.0135099 -0.0022088 -0.0128258 0.0572948 0.00517887 0.00982106 0.00846207
internal_weight=0 6082.69 1648.02 1100.23 1054 933.511 762.636 646.281 547.795 4434.67 281.079 4422.97 904.176 744.539 409.839 334.7 159.637 55.9766 170.875 32.1156 138.759 107.235 289.355 45.3443 3518.79 471.053 31.5242 386.488 175.229 93.2154
internal_count=27433 24653 6679 4459 4273 3784 3091 2619 2220 17974 1139 17927 3661 3016 1656 1360 645 227 693 130 563 435 1176 184 14266 1909 128 1561 710 378
is_linear=0
shrinkage=0.05


Tree=14
num_leaves=31
num_cat=0
split_feature=0 43 11 6 0 50 11 43 0 6 37 50 50 0 43 5 64 6 0 43 6 0 68 43 6 0 6 43 37 0
split_gain=56.4734 94.366 87.5715 45.524 45.3055 95.7297 91.7993 56.7921 62.8028 52.7652 45.8048 44.6386 39.544 38.8994 54.4298 56.9836 48.0565 44.1374 36.9139 49.6282 36.2779 33.7548 36.198 31.7706 29.2828 28.9957 30.7117 41.6351 28.8243 30.0447
threshold=0.53293925523757946 0.45903177559375768 0.18998081982135775 -0.18178779631853101 -0.39995902776718134 -0.18793999403715131 -0.26599796116352076 -0.22920596599578855 0.21665383875370028 0.12779052555561068 -0.050591735169291489 -0.24288322776556012 0.54225081205368053 -1.0198361873626707 -0.82328569889068592 -0.31402239203453058 -0.78766828775405873 -0.18921082466840741 0.94129589200019848 0.92154407501220714 -0.24065636098384854 0.82463130354881298 0.71497151255607616 -0.36869066953659052 0.15137714147567752 1.7491940855979922 0.3958332240581513 1.6564193367958071 0.181530736386776 0.19647206366062167
decision_type=2 2 2 2 2 2 2 2 2 2 2 2 2 2 2 2 2 2 2 2 2 2 2 2 2 2 2 2 2 2
left_child=1 4 -2 -3 6 10 13 -7 20 -10 -6 -8 18 16 17 -16 -1 -15 19 24 -9 -14 -23 -17 -4 26 -24 -28 29 -5
right_child=2 3 12 28 5 7 11 8 9 -11 -12 -13 21 14 15 23 -18 -19 -20 -21 -22 22 25 -25 -26 -27 27 -29 -30 -31
leaf_value=-0.0033042050920069465 0.051224514740723287 -0.0095156758901210597 0.04678387089474545 -0.067764089282278506 0.03927539528046823 0.012400766764296897 -0.017016476589172515 0.0069582972782702207 0.036875199234882992 -0.0035528871079084203 0.0074370160517558863 -0.0566647492787581 -0.015491731589949119 0.045310529648872687 -0.028050043298998375 0.017106561651476514 -0.032980913384709681 0.0070321478736664255 0.040969709990266508 -0.018566866940463382 -0.025112126308913518 0.014798142959350075 0.012142055603718714 -0.011202845340367616 0.0090515233901822985 0.013443675204599862 -0.0079354936748762227 -0.048655191473961808 -0.054460926722916886 -0.0019819440939623707
leaf_weight=884.65537033975124 106.03807289898396 265.17807684838772 79.193965911865234 23.12131342291832 252.36396490037441 517.7914844751358 212.48413152992725 109.13469640910625 106.3092944175005 335.15519744157791 204.51301549375057 106.60868589580059 268.29584708809853 131.24386511743069 160.09448349475861 274.80319577455521 161.28467808663845 176.69562266767025 121.66578386723995 110.83516930043697 459.26745095849037 477.62276041507721 128.05643227696419 155.01107862591743 146.61043022572994 195.69424247741699 315.07490484416485 78.395012304186821 137.27566835284233 69.632242456078529
leaf_count=3567 459 1066 323 94 1037 2104 859 443 430 1351 832 435 1079 541 646 1117 652 718 500 447 1847 1931 520 624 596 787 1269 315 564 280
internal_value=0 -0.0029796 0.00699055 -0.0236352 -0.000571359 0.00494287 -0.00540731 -0.00106265 -0.00796579 0.00618262 0.0250235 -0.0302629 0.00454943 -0.001327 0.0063073 -0.00258732 -0.00788037 0.0233464 0.0173657 0.00883493 -0.0189545 0.000534933 0.00413364 0.00689687 0.022285 -0.00296824 -0.00912654 -0.0160485 -0.0399122 -0.0183799
internal_weight=0 4742.62 2027.48 495.207 4247.42 1984.54 2262.88 1527.66 1009.87 441.464 456.877 319.093 1921.44 1943.79 897.848 589.909 1045.94 307.939 458.305 336.64 568.402 1463.14 1194.84 429.814 225.804 717.221 521.526 393.47 230.029 92.7536
internal_count=27433 19207 8226 2004 17203 8044 9159 6175 4071 1781 1869 1294 7767 7865 3646 2387 4219 1259 1866 1366 2290 5901 4822 1741 919 2891 2104 1584 938 374
is_linear=0
shrinkage=0.05


Tree=15
num_leaves=31
num_cat=0
split_feature=0 43 6 11 0 11 43 0 6 0 43 6 64 11 0 64 0 0 64 0 50 50 6 6 0 50 0 58 43 4
split_gain=51.9392 99.1419 83.2292 75.597 69.9943 69.3191 67.6179 62.5076 52.0725 69.575 40.6879 36.2488 35.7084 34.4123 33.9623 33.5156 40.3342 36.2501 33.3101 52.1146 32.9433 30.8402 30.5162 29.8373 28.8343 28.2549 29.2526 28.0937 27.5384 31.7609
threshold=0.40309281647205358 0.046665532514452941 0.10421356558799745 0.20343030989170077 -0.6810571253299712 -0.33681771159172053 -0.65049046277999867 -0.20013684779405591 -0.29154752194881434 -0.067910198122262941 0.56706532835960399 -0.68592315912246693 -0.32798230648040766 -0.19537954032421109 -0.38824367523193354 0.76416438817977916 0.86321502923965465 1.121712923049927 -0.87436771392822255 -1.2984556555747984 0.54225081205368053 -1.1972418427467344 0.98899236321449291 0.66953718662261974 -1.0034745931625364 -0.97979867458343495 -1.686050236225128 0.42139434814453131 -1.6217147707939146 -1.6690703034400938
decision_type=2 2 2 2 2 2 2 2 2 2 2 2 2 2 2 2 2 2 2 2 2 2 2 2 2 2 2 2 2 2
left_child=1 4 7 -2 5 18 -6 -3 14 12 11 -9 23 -11 -8 17 27 22 19 25 -18 -20 -5 -10 -23 26 28 -17 29 -1
right_child=3 2 -4 15 6 -7 8 10 9 13 -12 -13 -14 -15 -16 16 20 -19 21 -21 -22 24 -24 -25 -26 -27 -28 -29 -30 -31
leaf_value=0.034731775548769071 0.034840555939814465 -0.035080933842602517 -0.038615530589604846 0.012882000043248867 0.027455489710232109 -0.039710923381223152 0.0068603849735108871 0.046845707426454206 0.00136297459722048 0.042245542413893222 -0.01914092512257556 0.0028856876706204616 -0.030193544636134668 0.0049614211626323752 0.038023854065179712 -0.0088701555801706054 0.02751091323133982 0.037476289740341916 0.0056282939502293973 0.01486846086348043 -0.00042956692652067392 -0.04215377659990921 -0.011062735182006379 -0.061636640534209843 -0.011386870439603153 -0.031873127800237239 0.013253702997916221 -0.044487286483971329 -0.03347780164956779 -0.011754821656168479
leaf_weight=46.479145154356956 207.43318542838097 163.63742430508137 303.06057032942772 537.08222733438015 359.39341729879379 141.57176978886127 223.90700970590115 53.999192029237747 245.85101389884949 73.642192855477333 193.53745400905609 356.39780734479427 235.10858815908432 387.73966729640961 143.43115681409836 201.22981931269169 119.28489878773689 112.5867654979229 137.98488667607307 442.50835232436657 912.69013412296772 119.36213348805904 176.88307720422745 20.349873617291451 210.35927250981331 100.83584305644035 180.38727331161499 76.37836492061615 101.32005535066128 175.41077797114849
leaf_count=186 883 662 1231 2183 1483 580 906 220 992 303 782 1444 949 1563 592 809 487 465 556 1805 3673 484 713 82 849 406 729 308 406 702
internal_value=0 -0.00318624 -0.0164294 0.0060229 0.00105166 -0.00625252 0.00821229 -0.00766958 0.0030125 -0.00309879 -0.000242415 0.00866986 -0.0159941 0.0109124 0.0190285 0.00322451 -0.00175112 0.0111079 -0.00312522 0.00183073 0.00280004 -0.0142189 0.00694975 -0.00345307 -0.0225248 -0.00771425 -0.00287689 -0.0186695 -0.0118796 -0.0020173
internal_weight=0 4416.27 1070.63 2343.57 3345.64 1656.22 1689.42 767.572 1330.03 962.691 603.934 410.397 501.309 461.382 367.338 2136.14 1309.58 826.552 1514.65 1046.94 1031.98 467.706 713.965 266.201 329.721 604.433 503.597 277.608 323.21 221.89
internal_count=27433 17912 4339 9521 13573 6703 6870 3108 5387 3889 2446 1664 2023 1866 1498 8638 5277 3361 6123 4234 4160 1889 2896 1074 1333 2429 2023 1117 1294 888
is_linear=0
shrinkage=0.05


Tree=16
num_leaves=31
num_cat=0
split_feature=0 43 43 0 6 0 6 6 43 43 0 3 0 43 6 6 35 0 37 0 6 43 6 35 43 6 0 28 0 0
split_gain=49.2155 107.258 74.6402 72.0979 69.2989 59.4372 50.0858 46.1625 40.664 40.25 63.9199 38.7666 38.4522 59.2422 74.8855 44.8883 38.4357 40.3756 37.6604 35.7137 37.5791 34.4797 31.9015 30.0312 29.9224 28.5926 28.2839 28.2126 27.5731 26.974
threshold=0.21665383875370028 -0.1725482568144798 0.21237400919198993 -0.6810571253299712 -0.26701334118843073 -0.39995902776718134 -0.20730163156986234 0.043170623481273658 -0.65049046277999867 -0.82328569889068592 -1.4027293324470518 0.7743215560913087 0.79381796717643749 0.96834525465965282 0.12779052555561068 0.3958332240581513 0.22090924531221393 -0.18172378093004224 0.14281542599201205 -0.42688311636447901 0.77896425127983104 0.89265114068984996 0.12779052555561068 -0.83896872401237477 -0.9557080566883086 -0.60792058706283558 -0.16837186366319654 0.98615872859954845 0.46756723523139959 -1.6509147286415098
decision_type=2 2 2 2 2 2 2 2 2 2 2 2 2 2 2 2 2 2 2 2 2 2 2 2 2 2 2 2 2 2
left_child=1 3 22 7 5 -3 -5 9 26 10 23 27 13 14 18 21 17 -6 -4 -10 -21 -14 -2 29 -9 -11 -8 -7 -16 -1
right_child=2 4 12 6 16 11 8 24 19 25 -12 -13 15 -15 28 -17 -18 -19 -20 20 -22 -23 -24 -25 -26 -27 -28 -29 -30 -31
leaf_value=-0.011084328981172648 0.059063635588535814 -0.029532006853365114 0.043541661080427653 0.027833104731380814 -0.051895444946891245 0.015571820585792921 0.012484028132676402 -0.019578751750017206 -0.035591792527367376 -0.0068336779348043683 0.0174310520125135 -0.043121744135540992 0.056967455644287825 -0.035139155822525803 -0.031507288795921989 0.0019138003727831986 -0.048428520678742287 -0.011685056619164202 0.0065970144382862406 0.0072578321153387373 -0.034959710299541362 0.015234141033476811 0.018678241710983069 -0.037777223621295965 -0.074585659325520706 -0.033815722373095089 0.053151639099366467 -0.024592755565365682 -0.0056084286606479699 0.014804996426785986
leaf_weight=346.83984164893627 55.822382852435112 170.10215872526169 96.680462181568146 326.15251809358597 79.153338104486465 331.25565750896931 233.21785648167133 94.862073421478271 74.273300305008888 344.86302870512009 436.54907113313675 37.321765840053558 60.962299600243568 149.35874196887016 147.65186648070812 1101.0363699197769 177.48510918021202 295.45402021706104 240.75312219560146 403.92286033928394 60.621913880109787 263.04767967760563 394.28087264299393 73.883929327130318 33.437550336122513 137.26488701999187 52.351806849241257 50.369896188378334 338.08572994172573 141.72071762382984
leaf_count=1390 234 687 395 1347 323 1351 955 385 300 1399 1781 151 256 605 600 4448 724 1191 977 1633 245 1075 1617 299 138 560 220 203 1373 571
internal_value=0 -0.00364144 0.00500414 0.00168956 -0.016535 -0.00460627 0.0112475 -0.0051432 0.00468571 -0.00265091 0.00307516 0.00551415 0.00149678 -0.00616814 -0.000911548 0.00672774 -0.0292622 -0.0201814 0.0171823 -0.00339862 0.00174855 0.0230862 0.0236869 -0.00806736 -0.0339147 -0.0145156 0.0199394 0.0102706 -0.013481 -0.0035744
internal_weight=0 3901.1 2847.68 2759.96 1141.14 589.049 1150.54 1609.42 824.388 1481.12 998.994 418.947 2397.58 972.53 823.171 1425.05 552.092 374.607 337.434 538.818 464.545 324.01 450.103 562.444 128.3 482.128 285.57 381.626 485.738 488.561
internal_count=27433 15853 11580 11223 4630 2392 4700 6523 3353 6000 4041 1705 9729 3950 3345 5779 2238 1514 1372 2178 1878 1331 1851 2260 523 1959 1175 1554 1973 1961
is_linear=0
shrinkage=0.05


Tree=17
num_leaves=31
num_cat=0
split_feature=0 43 50 43 0 0 43 50 0 35 35 8 0 0 79 43 0 35 43 0 56 43 40 50 50 35 15 41 0 43
split_gain=44.495 97.0375 76.321 69.9663 66.2665 51.1317 49.9597 48.703 48.2491 68.7255 41.1521 40.7957 37.5822 37.4099 34.8969 34.0477 35.4503 44.3665 33.9069 30.9144 33.706 29.4591 29.3364 27.2111 25.7023 25.4862 25.1897 25.8201 24.1953 32.1786
threshold=0.21665383875370028 -0.1725482568144798 0.13572696596384051 0.41884362697601324 -0.75268971920013417 -0.24977986514568326 -0.76550137996673573 -0.70267942547798146 0.77822333574295055 0.4491442888975144 0.52665564417839061 -0.15732952207326886 -0.39995902776718134 -1.6509147286415098 1.0000000180025095e-35 -0.82328569889068592 -1.0924503803253172 -1.2570414543151853 1.0580310225486758 0.47730252146720892 -0.49062943458557123 -1.6578810811042783 0.048819324001669891 0.34222757816314703 -0.32973328232765192 -0.46046946942806238 -0.48059812188148493 1.1193982362747195 1.1359273195266726 1.0268526673316958
decision_type=2 2 2 2 2 2 2 2 2 2 2 2 2 2 2 2 2 2 2 2 2 2 2 2 2 2 2 2 2 2
left_child=1 4 5 14 7 26 -6 13 9 18 -10 12 25 21 -2 16 17 -15 -5 23 -21 -1 -9 -16 -7 -8 -3 -28 -12 -30
right_child=3 2 -4 8 6 24 11 22 10 -11 28 -13 -14 15 19 -17 -18 -19 -20 20 -22 -23 -24 -25 -26 -27 27 -29 29 -31
leaf_value=-0.0018934129594574422 0.060736152730967642 -0.045832884934286784 -0.037965540945778808 0.007301895834223038 0.02872494444243881 0.019455935358341586 0.0052574183864927664 -0.0097182725096504954 0.024120387048511216 -0.031395234020913834 -0.0098476355689331354 0.016096620568929156 0.0034046865446736661 0.029534767993005414 0.018924718134017918 -0.007467578092985476 0.042502007447633591 -0.0068531381572774948 -0.032934071540106566 0.0075441469240551551 0.039151809947812026 -0.030826996702109345 -0.037040506729018319 -0.0072928049607009415 -0.0054354552485303877 -0.04070627865173241 -0.023971537090892236 0.020253782170367648 0.02562491143114521 0.00093104585871267305
leaf_weight=238.91783894598484 43.957766517996788 96.967280581593513 288.49343778192997 359.00401884317398 279.08208088576794 138.3587629199028 43.561400160193443 261.9760435372591 239.46021991968155 256.84224623441696 340.28732798993587 437.92144973576069 400.55544775724411 141.51956667006016 191.2100030630827 257.73732002079487 94.775527566671371 205.27642695605755 61.300518900156021 145.93976214528084 199.84588533639908 139.24756422638893 157.1978562772274 205.15974676609039 414.10449458658695 98.023650109767914 159.12177814543247 41.63969698548317 166.57314467430115 634.25478029251099
leaf_count=957 187 395 1180 1462 1166 565 177 1062 989 1044 1374 1785 1630 576 776 1045 390 833 248 601 832 560 645 830 1678 397 644 168 678 2559
internal_value=0 -0.00346541 -0.0157437 0.00476126 0.00160793 -0.00820317 0.010061 -0.00550374 -8.61624e-05 -0.0110184 0.00527591 0.0047463 -0.00442209 0.000122028 0.0174498 0.00697322 0.0154021 0.00799594 0.00143357 0.014886 0.0258117 -0.0125473 -0.0199646 0.00535461 0.000798339 -0.0265647 -0.0249063 -0.0147988 0.00132144 0.0060674
internal_weight=0 3894.48 1138.69 2843.84 2755.79 850.192 1259.14 1496.65 2057.72 677.147 1380.58 980.062 542.14 1077.47 786.113 699.309 441.572 346.796 420.305 742.155 345.786 378.165 419.174 396.37 552.463 141.585 297.729 200.761 1141.12 800.828
internal_count=27433 15853 4630 11580 11223 3450 5155 6068 8354 2754 5600 3989 2204 4361 3226 2844 1799 1409 1710 3039 1433 1517 1707 1606 2243 574 1207 812 4611 3237
is_linear=0
shrinkage=0.05


Tree=18
num_leaves=31
num_cat=0
split_feature=66 47 60 2 64 1 4 26 78 76 1 43 32 79 78 5 15 24 54 24 17 14 56 31 2 4 6 56 1 6
split_gain=21.1793 22.6125 27.5045 21.6542 17.341 29.0216 54.5288 22.1058 19.7736 16.394 15.616 18.9639 36.1325 17.8211 15.8365 15.5672 15.5118 18.592 17.9867 16.9642 16.7249 15.4922 15.3797 15.2173 15.2094 33.2779 26.7829 19.448 16.6101 25.7561
threshold=1.0000000180025095e-35 -0.6843782067298888 -0.34779255092144007 1.4280646443367007 -0.85841825604438771 -0.14083939790725705 -0.05967943184077739 -2.2967816591262813 -1.1314331293106077 0.77960187196731578 -0.59386312961578358 0.22112435102462771 1.0000000180025095e-35 1.0000000180025095e-35 -0.98173975944519032 -0.23426680266857144 0.59020259976387035 -0.28802710771560663 -1.0744125843048093 -0.56469437479972828 -0.8633098006248473 -0.24983040988445279 -1.6618254780769346 -0.57970644533634175 1.0245352387428286 -0.3349230140447616 0.948164463043213 0.97015631198883068 0.97874906659126293 1.5596195459365847
decision_type=2 2 2 2 2 2 2 2 2 2 2 2 2 2 2 2 2 2 2 2 2 2 2 2 2 2 2 2 2 2
left_child=1 2 9 -4 8 6 10 -8 15 -1 13 12 -12 -6 -15 -3 19 23 -19 22 -21 -2 -10 -18 25 26 -7 28 -27 -30
right_child=21 4 3 -5 5 24 7 -9 16 -11 11 -13 -14 14 -16 -17 17 18 -20 20 -22 -23 -24 -25 -26 27 -28 -29 29 -31
leaf_value=0.0047423217877455752 0.015073586818479132 -0.02155362225125244 0.0014849095602737161 -0.028453833657520078 -0.0055812625158155431 0.028732045641495743 0.055255227949189495 -0.033015952288315081 -0.036688331929328542 0.023642481503541157 0.024923041627324397 -0.010494094710109845 -0.018723637427741188 -0.069872621478334465 -0.019448041921886743 0.045538187128670471 0.0031425589794797596 0.068205054955822131 -0.0010407763433235627 0.030590352211522554 -0.0017902079253184376 0.0018245661963645059 0.030656502405134258 -0.035264500887027539 -0.0099086629046248077 -0.0073105438080001937 -0.023328054966783605 0.013929859281425042 0.010625127100695988 -0.017156037808523216
leaf_weight=226.71204051375389 363.62413656711578 10.731744498014448 1047.5263246297836 64.092391088604927 476.70390492677689 160.60680186748505 7.2913582473993293 260.27195881307125 9.3251869976520521 232.2939747273922 159.59885297715664 160.61047002673149 67.459456145763397 17.892689809203148 119.99640585482121 44.484778448939323 37.829909458756447 10.314773559570311 103.24199672043324 44.824395328760147 361.3955699801445 561.11664205789566 93.285321399569511 81.036012887954712 395.02646514773369 928.88758088648319 29.196286708116531 182.26378826797009 361.94389675557613 108.42069320380688
leaf_count=925 1484 44 4271 259 1943 660 30 1067 38 948 655 656 275 73 491 182 153 42 419 184 1469 2289 381 329 1597 3788 118 749 1475 439
internal_value=0 -0.00111315 0.00401048 -0.000241263 -0.0030144 -0.00455521 -0.0105571 -0.0306105 0.00363303 0.0143073 -0.0052036 0.00265469 0.0119555 -0.0101604 -0.0259912 0.0324984 0.00148283 -0.00921917 0.00524907 0.00637127 0.00178283 0.00703431 0.0245362 -0.0230412 -0.00103716 0.000941296 0.0207239 -0.00143289 -0.00343401 0.00422147
internal_weight=0 5803.27 1570.62 1111.62 4232.64 3436.17 1269.83 267.563 796.47 459.006 1002.26 387.669 227.058 614.593 137.889 55.2165 741.253 232.423 113.557 508.83 406.22 924.741 102.611 118.866 2166.35 1771.32 189.803 1581.52 1399.25 470.365
internal_count=27433 23660 6403 4530 17257 14016 5190 1097 3241 1873 4093 1586 930 2507 564 226 3015 943 461 2072 1653 3773 419 482 8826 7229 778 6451 5702 1914
is_linear=0
shrinkage=0.05


Tree=19
num_leaves=31
num_cat=0
split_feature=0 11 11 43 0 0 50 50 0 43 79 50 50 0 0 43 43 43 0 78 0 5 78 0 31 43 4 0 0 35
split_gain=40.6338 78.7185 71.8222 36.8912 80.7132 55.5366 51.8626 46.0023 45.5282 57.6456 44.985 40.5436 40.1419 33.7881 32.5568 31.9241 29.9426 27.9767 50.2871 32.6907 26.6846 25.0776 24.9107 23.6448 23.544 23.5012 28.4026 22.3105 22.0099 28.7477
threshold=0.53293925523757946 0.5049930512905122 0.27238619327545172 -0.22920596599578855 -0.39995902776718134 0.010143769439309837 -0.27101953327655787 -0.10469885542988776 -1.2984556555747984 -0.9557080566883086 1.0000000180025095e-35 -1.0903932452201841 -0.17883829027414319 -0.7242828607559203 -0.11696537956595419 -2.011351346969604 0.80645161867141735 0.96834525465965282 0.73831912875175487 -0.99100869894027699 -1.686050236225128 -0.31402239203453058 -1.1185252666473386 -0.7242828607559203 1.0641925036907198 -1.6217147707939146 -1.6690703034400938 0.35328520834445959 1.0639594793319704 0.16423780471086505
decision_type=2 2 2 2 2 2 2 2 2 2 2 2 2 2 2 2 2 2 2 2 2 2 2 2 2 2 2 2 2 2
left_child=1 3 22 4 6 7 8 13 11 -10 -7 20 -6 -5 -14 -13 27 19 -19 24 25 -11 -2 -23 -4 26 -1 -3 29 -21
right_child=2 16 17 5 12 10 -8 -9 9 21 -12 15 14 -15 -16 -17 -18 18 -20 28 -22 23 -24 -25 -26 -27 -28 -29 -30 -31
leaf_value=0.033327090971699225 0.0063261979559379629 -0.032973068951517324 -0.030549685377700083 -0.04212962440685844 0.039408639935893525 0.024614842401938539 -0.02234859124356265 -0.033887750908271348 0.024063693697432879 -0.017327672044560167 -0.003549557494599924 0.021303274619016918 -0.0026367342128039328 -0.0032894136826132746 0.022995872520484312 -0.039960910285972165 -0.057875122633297506 -0.04334347081399223 0.00052247007960139051 0.054952580413394438 0.012545334086839187 -0.0024922586495126262 0.047966519521643478 0.020214595737803161 0.027970018570812362 -0.029995806490651578 -0.010984153745997684 -0.0004182004383923975 0.029020647289499282 0.0057574487259518508
leaf_weight=46.206201061606407 49.927709221839905 124.59215635061264 75.315782517194748 63.741999313235283 163.92704622447491 172.00700512528419 275.33685678243637 255.39170990884304 350.88962242007256 172.16780634224415 806.7086525708437 25.072899699211121 234.9910484701395 460.64586161077023 261.99062816798687 139.97424495220184 65.259814500808716 70.126725509762764 956.04611264169216 31.545294791460037 192.59254185855389 365.90966591238976 127.98912462592125 166.95835767686367 22.269818246364594 107.99595609307289 166.38661302626133 91.115634337067604 175.76494127511978 506.56397306919098
leaf_count=185 215 511 305 261 688 704 1128 1043 1445 700 3267 101 955 1873 1079 569 272 284 3866 130 781 1489 561 685 91 435 666 370 722 2052
internal_value=0 -0.00253576 0.00594768 -0.000907649 0.00279546 -0.00653108 -0.00218974 -0.0164859 0.00101095 0.00750383 0.00140027 -0.00909774 0.0179529 -0.00801064 0.0108758 -0.030654 -0.0281997 0.00301083 -0.00247525 0.00994854 -0.0021649 -0.000737853 0.0362813 0.00462226 -0.017195 -0.011002 -0.00135328 -0.0192218 0.013659 0.00864139
internal_weight=0 4709.86 2015.55 4428.89 2670.4 1758.5 2009.49 779.78 1734.15 1055.93 978.716 678.228 660.909 524.388 496.982 165.047 280.968 1837.63 1026.17 811.46 513.181 705.036 177.917 532.868 97.5856 320.589 212.593 215.708 713.874 538.109
internal_count=27433 19207 8226 18054 10906 7148 8184 3177 7056 4319 3971 2737 2722 2134 2034 670 1153 7450 4150 3300 2067 2874 776 2174 396 1286 851 881 2904 2182
is_linear=0
shrinkage=0.05


Tree=20
num_leaves=31
num_cat=0
split_feature=22 19 66 59 11 14 46 1 6 24 35 14 1 4 61 61 78 52 50 15 59 60 56 77 64 47 2 4 1 64
split_gain=19.9456 22.9323 19.5839 17.6457 15.7272 14.9973 14.8144 13.74 18.1537 16.7047 16.1216 14.5678 13.5304 23.6043 19.0084 18.9523 15.4816 13.0796 12.6403 12.6173 12.0392 11.9872 11.9853 11.9666 11.95 11.893 11.7613 11.7271 11.5862 16.3687
threshold=1.0000000180025095e-35 0.054394656792283065 1.0000000180025095e-35 -1.1446617841720579 -0.15060469508171079 0.21258369833230975 0.91545990109443676 1.4637613296508791 -0.20730163156986234 -0.95640063285827626 0.84138131141662609 1.7088158130645754 -0.091928888112306581 -0.40144735574722284 2.2578186988830571 -0.035527644678950303 0.87849244475364696 -0.56195273995399464 -2.5268934965133663 0.0095736077055335062 -0.13101502507925031 0.9261758327484132 -0.19708795845508573 -0.97165918350219715 -0.25629082322120661 1.2767149209976199 1.064910411834717 0.18622298538684848 -0.90983206033706654 -1.3780467510223386
decision_type=2 2 2 2 2 2 2 2 2 2 2 2 2 2 2 2 2 2 2 2 2 2 2 2 2 2 2 2 2 2
left_child=1 7 -3 4 -2 6 -5 8 9 19 11 -11 13 28 16 23 17 21 -13 -1 -4 -14 -20 -15 25 -19 -7 -24 29 -10
right_child=3 2 20 5 -6 26 -8 -9 12 10 -12 18 14 15 -16 -17 -18 24 22 -21 -22 -23 27 -25 -26 -27 -28 -29 -30 -31
leaf_value=-0.008548354770001626 0.024401125357727538 -0.0042364195768123895 0.01187526800522792 -0.0078441432601700709 -0.012384511281129853 -0.016438319724830137 0.018471126873859708 0.017958338081207042 0.076569667416336432 0.00925874783518176 -0.068713908494357503 0.054018327827995538 0.027313409493934234 0.050939750892278902 -0.032345750756170528 -0.043483713453361023 0.020754231055764818 0.015427482751004038 -0.079514627015706996 0.066198840437061202 -0.001224227616480514 -0.035250914618549116 -0.028109349904454125 -0.013446351765630997 -0.0029112552700960364 -0.024513276848204667 -0.055512778934677931 0.041563597925322923 0.01061809974800916 -0.017312770107881296
leaf_weight=7.7264843583107021 77.851304054260254 2268.6618560701609 350.61244456470013 481.3933946788311 46.357861891388893 229.22106447815895 60.166480526328087 173.15815988183022 4.924538478255271 989.09152571856976 6.9114902764558783 5.4669335186481467 74.97638276219368 7.6161296665668479 36.845133528113365 59.961436688899994 124.58162754774094 173.66976568102837 8.6342336088418943 20.963712498545647 350.98715937137604 8.5267013013362867 30.327120497822762 137.53901474177837 680.39485222101212 20.87863589823246 21.024264708161354 7.5413249135017386 167.84052173793316 81.17331038415432
leaf_count=32 319 9272 1435 1959 189 934 245 703 20 4043 28 22 308 31 149 246 509 712 35 86 1434 35 124 563 2780 85 85 31 688 331
internal_value=0 0.0010898 -0.00197864 -0.00684963 0.0106718 -0.00959819 -0.00492056 0.00431173 0.0034219 0.00842817 0.00739768 0.00790298 8.15876e-06 -0.00722113 0.00297157 -0.0198364 0.00417308 0.00201781 -0.0179002 0.0460689 0.00532202 0.0209248 -0.026355 -0.0100681 0.000213363 0.0111411 -0.0197211 -0.0142343 0.00296876 -0.011943
internal_weight=0 5799.01 2970.26 916.014 124.209 791.805 541.56 2828.75 2655.59 1076.66 1047.97 1041.06 1578.93 459.055 1119.87 205.117 1083.03 958.446 51.9696 28.6902 701.6 83.5031 46.5027 145.155 874.943 194.548 250.245 37.8684 253.938 86.0978
internal_count=27433 23702 12141 3731 508 3223 2204 11561 10858 4401 4283 4255 6457 1879 4578 840 4429 3920 212 118 2869 343 190 594 3577 797 1019 155 1039 351
is_linear=0
shrinkage=0.05


Tree=21
num_leaves=31
num_cat=0
split_feature=0 43 64 6 0 79 0 0 64 6 43 0 0 6 43 43 0 43 0 43 6 6 0 43 58 0 43 43 0 0
split_gain=37.9715 77.4295 64.6222 55.2314 54.381 50.5088 47.1175 43.9131 43.5136 47.6267 39.3858 39.6922 37.5684 34.7541 53.9408 35.4511 50.0389 33.814 32.8502 34.2661 32.3715 32.0053 29.958 29.7105 29.0525 28.8225 29.2437 29.0243 32.1441 28.5969
threshold=0.18827056884765628 -0.1725482568144798 0.62405952811241161 -0.26701334118843073 -0.76570406556129444 1.0000000180025095e-35 -0.43851253390312189 0.76283138990402233 -1.3224565386772154 -0.59707906842231739 -0.97309681773185719 -1.4027293324470518 -1.8756050467491148 0.12779052555561068 0.76730468869209301 -0.21937000751495359 0.47730252146720892 0.53349059820175182 -0.39995902776718134 -0.65049046277999867 0.68017941713333141 0.3958332240581513 -1.6509147286415098 0.29873520135879522 0.20259508490562442 1.2804734706878664 1.1323884129524233 1.4634486436843874 1.7491940855979922 -0.21012406796216962
decision_type=2 2 2 2 2 2 2 2 2 2 2 2 2 2 2 2 2 2 2 2 2 2 2 2 2 2 2 2 2 2
left_child=1 4 13 6 8 -6 -3 24 12 22 11 -11 -1 14 -2 -15 -17 -8 -7 -20 -21 -9 -10 29 -4 26 -23 -27 -29 -5
right_child=2 3 7 23 5 18 17 21 9 10 -12 -13 -14 15 -16 16 -18 -19 19 20 -22 25 -24 -25 -26 27 -28 28 -30 -31
leaf_value=-0.010709316471819934 0.040478588594784058 -0.028039218463143445 -0.0056548960067710928 -0.048875674838319581 0.017732039259356857 -0.024853625467684617 0.012074934206959466 0.017219922682840155 -0.032610059779422974 -0.050527659248256231 -0.046194423324306656 -0.0029537527925252499 0.015902961583908259 0.038480062034717794 -0.0051143758274575391 -0.010881465390157734 0.014304110507741278 -0.022601025698426199 0.030351338147886372 0.004116643497879221 -0.035183666235644173 -0.0043754284019367935 0.0027980365635394654 -0.050330928603424745 -0.032218507649568032 0.016377205456162662 -0.036807927645392792 -0.025091318863783026 0.0082028876131061829 -0.014126246160726719
leaf_weight=216.35794034600258 223.85505582392216 150.04558353126049 270.69580873847008 72.494589731097221 701.27162803709507 126.12543724477291 327.57949441671371 290.01536390185356 69.110298454761505 56.141340032219887 142.09271419048309 200.15724417567253 342.63496091961861 86.818924605846405 91.343943238258362 314.21569342911243 529.65172080695629 89.515263959765434 96.854762047529221 275.53245234489441 64.701648339629173 261.90802866220474 440.48247341811657 105.76083339750767 166.08516408503056 287.5848652869463 94.612180933356285 125.83626280725002 171.01754204928875 322.98468372225761
leaf_count=868 934 611 1095 302 2898 516 1340 1189 280 229 587 814 1398 364 374 1275 2199 361 408 1116 262 1056 1790 442 680 1164 380 506 688 1307
internal_value=0 -0.00328618 0.00430085 -0.0146985 0.00117763 0.00877653 -0.00401099 -0.00213514 -0.00537237 -0.0121291 -0.0250804 -0.0133747 0.00560269 0.0129161 0.0272659 0.00805628 0.00492621 0.00463291 -0.00237419 0.00411243 -0.00335702 0.00269777 -0.00200396 -0.0267912 -0.0157557 -0.00177815 -0.0129823 0.00505661 -0.00591052 -0.0204961
internal_weight=0 3799.84 2913.64 1068.38 2731.46 1264.49 567.14 1667.76 1466.98 907.984 398.391 256.299 558.993 1245.89 315.199 930.686 843.867 417.095 563.214 437.089 340.234 1230.97 509.593 501.24 436.781 940.959 356.52 584.439 296.854 395.479
internal_count=27433 15529 11904 4363 11166 5200 2312 6758 5966 3700 1630 1043 2266 5146 1308 3838 3474 1701 2302 1786 1378 4983 2070 2051 1775 3794 1436 2358 1194 1609
is_linear=0
shrinkage=0.05


Tree=22
num_leaves=31
num_cat=0
split_feature=0 11 11 0 50 0 0 64 50 43 0 5 64 0 50 6 0 43 6 0 50 11 11 77 64 20 64 61 43 8
split_gain=35.165 90.4795 82.4156 45.2963 41.902 39.1306 38.7061 48.5814 41.9052 40.6108 35.8948 34.2681 32.5538 38.669 31.795 31.1922 38.6691 42.9638 38.904 30.6114 33.2187 29.9881 29.3989 31.2914 29.0157 25.8679 23.2212 26.9247 22.9567 22.8189
threshold=0.010143769439309837 -0.066203694790601716 0.12058700993657114 0.35328520834445959 0.10144237428903581 -0.44731779396533961 -0.6810571253299712 -0.75947552919387806 -0.88000038266181935 -0.58240580558776844 0.58414188027381908 -0.31402239203453058 0.87764239311218273 1.2542669773101809 -1.1972418427467344 0.96905368566513073 0.77822333574295055 0.96834525465965282 0.13457679003477099 -1.4584082961082456 -1.0903932452201841 -0.19537954032421109 0.5049930512905122 -0.26098656654357905 -0.18211401253938672 -0.0083102067001163942 -1.1547340154647825 -1.0047146081924436 0.19555746018886569 -0.66064810752868641
decision_type=2 2 2 2 2 2 2 2 2 2 2 2 2 2 2 2 2 2 2 2 2 2 2 2 2 2 2 2 2 2
left_child=1 6 10 22 5 -3 7 19 -8 -10 21 -11 15 -14 -9 16 17 18 -5 26 -21 -2 23 -4 -7 -23 27 -1 -20 -17
right_child=2 4 3 12 -6 24 8 14 9 11 -12 -13 13 -15 -16 29 -18 -19 28 20 -22 25 -24 -25 -26 -27 -28 -29 -30 -31
leaf_value=0.0077020069407386154 0.041991716157879923 -0.047048627912070207 -0.017444364172704258 0.03310505765666396 -0.044319736062302939 0.021597042037832689 0.043599132561469522 0.0027776083701499055 0.018575447068491527 -0.018985544774499239 0.064779155201154209 0.0051370958531878038 -0.013119864363520185 0.0053454946391974598 -0.027021475004353826 0.014649175738196574 0.027995776097996729 -0.027986912861455101 0.027873236856149727 0.025447216323654057 0.00057920638724033178 0.003538264857282813 -0.034817850967926292 0.012396686449768764 -0.014275087806507892 0.029093998337821454 -0.034794464128530649 -0.01677784370489872 -0.0046489075112203689 -0.014555901697032412
leaf_weight=227.70499891042709 98.919556319713593 71.414259165525436 244.71318776905537 145.39145156741142 154.38046628236771 72.934606850147247 73.986424580216408 123.32168991863728 347.02082316577435 214.43618011474609 42.350910201668739 469.71636784076691 519.77217899262905 623.77628248929977 326.52826789021492 99.596575677394867 304.89781372249126 80.310512840747833 68.402399957180023 186.60044951736927 479.02388742566109 312.66599939763546 123.2545381039381 137.04758639633656 248.22545939683914 144.91457821428776 72.908580422401428 221.67319838702679 262.47338843345642 203.62745516002178
leaf_count=915 423 299 992 597 644 297 308 498 1448 873 197 1921 2100 2524 1343 406 1269 326 285 775 1950 1279 511 556 1010 596 296 894 1071 830
internal_value=0 -0.00368213 0.00356265 -2.25814e-05 -0.022251 -0.0135725 2.06178e-05 -0.00485849 0.00725108 0.00464312 0.0204052 -0.00242374 0.00294503 -0.00304749 -0.0188524 0.00882872 0.0136832 0.00584273 0.0115472 0.000440848 0.00755068 0.0170283 -0.0135865 -0.00673178 -0.00612862 0.0116317 -0.00862022 -0.00437363 0.00207444 -0.00496324
internal_weight=0 3289.88 3412.11 2813.26 546.955 392.574 2742.92 1637.76 1105.16 1031.17 598.851 684.153 2308.25 1143.55 449.85 1164.7 861.476 556.578 476.267 1187.91 665.624 556.5 505.015 381.761 321.16 457.581 522.287 449.378 330.876 303.224
internal_count=27433 13471 13962 11467 2250 1606 11221 6671 4550 4242 2495 2794 9408 4624 1841 4784 3548 2279 1953 4830 2725 2298 2059 1548 1307 1875 2105 1809 1356 1236
is_linear=0
shrinkage=0.05


Tree=23
num_leaves=31
num_cat=0
split_feature=0 11 11 50 0 11 50 6 0 64 64 50 0 52 64 0 68 4 0 64 64 35 64 6 2 0 6 5 0 13
split_gain=32.839 66.3388 61.7545 34.1454 29.6822 72.5159 64.2232 43.2905 29.3915 53.2309 42.9168 39.0881 30.6697 30.022 25.6987 25.1923 28.8608 27.7155 26.5577 26.978 25.1889 24.9123 24.6164 24.6534 35.8674 24.0081 23.395 23.1032 23.0603 22.9292
threshold=0.58414188027381908 0.5049930512905122 0.22616096585989001 0.54225081205368053 -0.14888629317283628 -0.17350371181964871 -0.12834702432155606 -0.18178779631853101 -0.76570406556129444 -0.77298220992088307 -0.85841825604438771 -1.1972418427467344 -1.2984556555747984 0.26076951622962957 -0.32798230648040766 0.82463130354881298 0.71497151255607616 1.6673417687416079 1.7002282142639162 1.2611699700355532 0.097283083945512785 -0.58869647979736317 -0.083874039351940141 -1.3139545917510984 0.52771615982055675 -0.61904078722000111 0.26200820505619055 0.88608801364898693 1.2126063704490664 1.3402157425880434
decision_type=2 2 2 2 2 2 2 2 2 2 2 2 2 2 2 2 2 2 2 2 2 2 2 2 2 2 2 2 2 2
left_child=1 4 -2 -4 6 -6 8 27 10 21 12 13 -1 -12 25 -5 17 28 19 -18 -9 -10 -11 24 -24 -8 -21 -7 -17 -14
right_child=2 -3 3 15 5 7 14 20 9 22 11 -13 29 -15 -16 16 18 -19 -20 26 -22 -23 23 -25 -26 -27 -28 -29 -30 -31
leaf_value=-0.0060796445461176046 0.043825149291384133 -0.024573211707367097 0.016604842418998612 -0.015177054387004243 0.031325066001343875 0.0086927744397746198 -0.04205540117455496 0.0034829161880734027 0.053019482957044201 0.0070837360162689647 0.013437899752477465 -0.027072280555486564 0.015087108970527952 -0.058739207649250884 -0.034344224341020295 0.0055479183165402565 -0.00069015773144037805 -0.02069242342570279 0.011207317673588957 0.019996807686670271 -0.011971914551044526 0.014425581931586091 0.069664520858646106 -0.02088417761660244 -0.017439450472853443 -0.0041206145577626354 -0.031453018046005768 0.03912412838855614 0.02913896074293966 -0.030581631690100888
leaf_weight=606.56879478693008 99.911851063370705 309.93729954957962 386.98118495941162 233.12097412347794 221.68119013309479 257.93907943367958 50.664858385920525 513.03109326958656 77.061453506350517 512.05461658537388 120.94695053994656 318.63310444355011 372.90201519429684 16.355532914400101 195.33824425935745 216.05953329801559 307.83061441779137 55.737219631671906 213.77472585439682 25.491274490952492 542.36881533265114 91.415865331888199 20.392892256379128 184.13642208278179 28.108730226755142 235.93243287503719 165.84058906137943 82.259044200181961 198.99595482647419 29.671702221035957
leaf_count=2452 458 1284 1598 940 941 1055 210 2094 328 2102 488 1314 1532 66 810 879 1249 226 862 104 2212 381 83 751 114 965 667 335 812 121
internal_value=0 -0.00220234 0.00556122 0.00344184 -0.000653791 0.00476006 -0.00371503 0.000540393 -0.000342274 0.00669828 -0.00473059 -0.017462 0.00102154 0.00484013 -0.0203589 -0.000153344 0.00280539 0.0124128 -0.00353896 -0.0098543 -0.0044593 0.0320784 0.000956344 -0.0125305 0.0191841 -0.0108268 -0.0245983 0.016051 0.0168585 0.0117211
internal_weight=0 4787.4 1903.74 1803.83 4477.46 1617.28 2860.18 1395.6 2378.25 913.17 1465.08 455.936 1009.14 137.302 481.936 1416.85 1183.73 470.793 712.937 499.162 1055.4 168.477 744.693 232.638 48.5016 286.597 191.332 340.198 415.055 402.574
internal_count=27433 19638 7795 7337 18354 6637 11717 5696 9732 3759 5973 1868 4105 554 1985 5739 4799 1917 2882 2020 4306 709 3050 948 197 1175 771 1390 1691 1653
is_linear=0
shrinkage=0.05


Tree=24
num_leaves=31
num_cat=0
split_feature=59 47 54 6 47 4 16 6 73 59 72 50 21 26 46 44 6 17 46 18 78 4 6 59 42 24 52 74 60 21
split_gain=20.2534 17.8733 21.4691 23.8106 23.5377 20.9727 20.9043 17.7861 16.66 16.6173 18.8651 16.2902 14.6545 14.2912 14.1481 13.8109 13.6392 18.2302 13.4708 13.2621 13.1235 13.3107 14.3026 15.3899 13.4916 14.8383 13.0982 14.3734 13.0244 15.2793
threshold=1.311889708042145 -0.6843782067298888 -0.18915338814258573 -0.95681247115135182 -0.86521068215370167 -1.3173143863677976 0.69001415371894848 2.9885634183883671 0.25814364850521093 -0.75936976075172413 -0.44958250224590296 -0.085093755275011049 -1.1801316142082212 -1.8875353336334226 -0.082344047725200639 0.27453100681304937 -1.4936170578002927 -0.27513583004474634 -1.0690562129020689 -1.8799970149993894 0.7011985480785371 1.3599750995635989 0.86366763710975658 0.17444579303264621 -0.92277047038078297 0.099831908941268935 -0.62975832819938649 -1.0297050476074217 -0.21672710031270978 1.564983129501343
decision_type=2 2 2 2 2 2 2 2 2 2 2 2 2 2 2 2 2 2 2 2 2 2 2 2 2 2 2 2 2 2
left_child=1 2 4 6 9 -5 -4 13 -7 12 26 15 19 -3 -8 -12 17 -2 -18 -1 21 24 -23 -24 25 -13 -11 -28 29 -10
right_child=16 7 3 5 -6 8 14 -9 28 10 11 20 -14 -15 -16 -17 18 -19 -20 -21 -22 22 23 -25 -26 -27 27 -29 -30 -31
leaf_value=0.057346234803002549 0.042934883364693227 0.014211295757441102 0.050419942232418274 -0.02549968950178591 0.027370421209452041 0.002689487000172977 -0.06788802750053298 -0.06230179550695325 0.022862990966913847 -0.052848278226924006 0.0015453535405175721 -0.047494540775550848 0.01614556867634119 -0.0011184838431616765 0.017505557534051027 0.037795810850774686 -0.083730488575588929 -0.031440720633922843 -0.0091956510634135565 -0.030233837682687476 -0.040063180500636619 0.079014651216720355 0.048488758524552367 -0.035492144448273588 -0.0047662457883313955 0.022545552098590171 0.026660071891654709 -0.03395684829582328 0.0081910370424475784 0.071642503482174005
leaf_weight=4.9842563867568961 27.319232359528542 157.73687635362148 65.342761412262917 43.824039235711098 69.748709574341774 355.38965630531311 6.1456962972879436 11.697216853499411 148.03031304478645 35.318601191043854 110.44367131590843 39.336956858634949 157.93174889683723 4204.256719186902 23.016160383820534 34.476529374718666 6.1202986836433402 11.796499192714689 636.38631974160671 32.561074689030647 32.692761242389679 8.6446235030889529 10.092024505138399 11.873478338122366 205.933967679739 9.3614693880081159 15.524865895509718 26.424737796187401 160.89807343482971 18.006117850542068
leaf_count=20 111 646 266 180 287 1470 25 47 608 144 456 159 649 17281 93 141 25 48 2596 133 134 35 41 48 845 38 64 108 661 74
internal_value=0 0.000934716 0.00541052 0.011102 -0.000389163 0.00802957 0.0347102 -0.000729248 0.0101831 -0.00302129 -0.00754224 -0.00372429 0.00947057 -0.000564134 -0.000490657 0.0101693 -0.00816051 0.0205047 -0.00990564 -0.0186073 -0.0100572 -0.00661815 0.0245339 0.00309278 -0.010363 -0.0340305 -0.0304127 -0.0115235 0.0183289 0.028153
internal_weight=0 5999.69 1626 820.653 805.349 726.148 94.5046 4373.69 682.324 735.601 540.124 462.855 195.477 4361.99 29.1619 144.92 681.622 39.1157 642.507 37.5453 317.935 285.243 30.6101 21.9655 254.632 48.6984 77.2682 41.9496 326.935 166.036
internal_count=27433 24653 6679 3377 3302 2993 384 17974 2813 3015 2213 1897 802 17927 118 597 2780 159 2621 153 1300 1166 124 89 1042 197 316 172 1343 682
is_linear=0
shrinkage=0.05


Tree=25
num_leaves=31
num_cat=0
split_feature=0 11 11 0 0 50 64 26 0 11 50 6 64 43 43 0 6 5 64 6 0 0 43 50 0 43 64 0 43 15
split_gain=31.3576 80.0851 69.4278 51.9557 43.9075 52.3183 29.1784 26.7135 31.715 39.1175 38.1502 34.5268 30.0657 29.4505 26.1553 50.2976 54.1356 35.1397 34.5123 32.8253 32.5554 28.7743 30.3202 28.3191 28.2649 24.8593 24.3358 24.2651 25.813 25.8814
threshold=0.18827056884765628 -0.074539061635732637 0.11410084366798402 -0.14888629317283628 -0.44731779396533961 0.093394927680492415 -0.19268123805522916 -0.65165373682975758 0.79381796717643749 0.6069515347480775 0.54225081205368053 -0.1737401410937309 0.77636483311653148 0.82094821333885204 -0.50710746645927418 -1.0198361873626707 -0.19840650260448453 -0.30638422071933741 -1.3224565386772154 -0.47369039058685297 -0.63392192125320423 -0.53597477078437794 -0.91871139407157887 -1.1972418427467344 -1.8756050467491148 -2.011351346969604 0.47068957984447485 1.2804734706878664 1.4634486436843874 -0.053879626095294945
decision_type=2 2 2 2 2 2 2 2 2 2 2 2 2 2 2 2 2 2 2 2 2 2 2 2 2 2 2 2 2 2
left_child=1 3 -2 14 -3 6 -6 -4 9 11 -10 -9 -13 -11 15 18 -17 -16 24 -20 23 22 -18 -19 -1 -26 -12 -28 29 -29
right_child=2 4 7 -5 5 -7 -8 8 10 13 26 12 -14 -15 17 16 21 20 19 -21 -22 -23 -24 -25 25 -27 27 28 -30 -31
leaf_value=-0.0097352884866658499 0.026679327195323441 -0.048727643837163631 0.018364431814701144 0.020992268335440632 0.022914522559883108 -0.027530082579656695 -0.0077886937130126474 0.021730978897078333 0.024494155556842048 -0.0098633053784302413 0.0249903660892494 -0.00065056933328896558 -0.027965429741588527 -0.044151077206955207 -0.031400691260534935 0.025669474420333807 0.0022469608763851525 0.0068939756190351149 -0.0058918291282277413 -0.033428586867919032 0.0056484212139811963 0.012585351431917356 -0.035095160216304176 -0.030085520553728928 0.046704031650740441 0.007508015120367576 -0.010270799517059477 0.037263813039231403 -0.0038472352047642087 0.0053866698970659694
leaf_weight=216.08724975585938 300.32294850051403 90.772471562027931 210.48868185281754 296.42682400345802 95.059076145291328 333.76231640577316 416.0924005061388 135.76859819889069 208.3325717151165 156.93714660406113 98.585071623325348 509.9748220294714 125.5429972410202 104.21143347024918 141.89363351464272 364.4852012693882 134.43404243886471 76.409875050187111 337.03017392754555 159.41331395506859 364.18599259853363 219.07621681690216 91.261513486504555 160.56442251801491 48.895546227693558 234.26868963241577 421.64264498651028 97.951022937893867 348.5328468978405 181.96543268859386
leaf_count=868 1281 389 861 1239 388 1379 1693 553 877 640 409 2091 510 430 579 1521 551 310 1374 655 1488 905 374 660 197 959 1707 400 1407 738
internal_value=0 -0.00299389 0.00391759 0.00118019 -0.0156828 -0.0121327 -0.0020788 0.00128835 -0.000215904 -0.00682001 0.00480861 -0.00115684 -0.00604647 -0.0235459 -0.00112468 0.00212564 0.0113839 -0.00902004 -0.00539909 -0.0147342 -0.00373747 -0.000322903 -0.0128526 -0.0181619 0.00388349 0.0142762 0.00123829 -0.000991607 0.00523404 0.0165414
internal_weight=0 3780.12 2900.26 2844.43 935.686 844.914 511.151 2599.93 2389.44 1032.43 1357.01 771.286 635.518 261.149 2548.01 1804.95 809.257 743.054 995.695 496.443 601.16 444.772 225.696 236.974 499.251 283.164 1148.68 1050.09 628.449 279.916
internal_count=27433 15529 11904 11680 3849 3460 2081 10623 9762 4224 5538 3154 2601 1070 10441 7404 3351 3037 4053 2029 2458 1830 925 970 2024 1156 4661 4252 2545 1138
is_linear=0
shrinkage=0.05


Tree=26
num_leaves=31
num_cat=0
split_feature=49 1 4 6 6 11 56 44 6 72 44 37 2 1 14 56 47 78 1 54 6 11 75 31 43 58 5 69 4 64
split_gain=22.3622 19.0629 26.8416 28.1714 23.9208 21.3988 18.5784 18.087 17.1361 16.2505 16.1531 19.028 16.891 20.6501 19.3943 16.1071 17.0505 15.9553 15.9281 17.7292 21.8285 15.7663 15.6826 15.3015 15.2945 15.4958 15.3515 18.0693 21.4994 15.2567
threshold=1.0000000180025095e-35 -0.049860205501317971 -0.3349230140447616 -0.47369039058685297 0.96905368566513073 -0.47381173074245447 -0.051609328016638749 -0.039656754583120339 -0.19840650260448453 -0.67890018224716175 0.24306897073984149 1.2265114784240725 -0.6181708276271819 1.1828852295875552 -0.40665154159069056 0.78751310706138622 -0.51565219461917866 0.83233261108398449 -1.0033455491065977 -0.27429819107055659 -0.33624066412448878 0.94000747799873363 -0.61044922471046437 -0.57970644533634175 1.7414999008178713 1.7134668231010439 0.19525501132011416 1.8039675951004031 -0.36887934803962702 0.79142984747886669
decision_type=2 2 2 2 2 2 2 2 2 2 2 2 2 2 2 2 2 2 2 2 2 2 2 2 2 2 2 2 2 2
left_child=1 2 7 15 24 6 9 18 -2 -5 12 -12 -6 -14 -15 16 -4 -10 19 -1 -21 22 -16 -19 26 -26 -3 -28 -29 -18
right_child=8 4 3 5 10 -7 -8 -9 17 -11 11 -13 13 14 21 -17 29 23 -20 20 -22 -23 -24 -25 25 -27 27 28 -30 -31
leaf_value=-0.0089483525310303305 0.0013631331524846838 0.0049064229964223835 0.032357625874309646 -0.047015525722111109 0.0064934783886392792 -0.02336807373360943 0.0052960752641104678 -0.0038627680574319836 -0.010452032104568651 0.014187789270534198 0.014346530224473486 -0.0078961881552087991 -0.042833979723512841 0.039587655669391472 0.023197292469223717 -0.014416359637862964 0.0049141954374849655 0.014168283235563071 0.016558775546565291 0.018443163974097201 -0.01464731185668975 -0.089890868133669269 -0.046965027875862764 -0.031797701049709061 0.020346071382999598 -0.020016712983842708 0.016988972028474138 0.063543082515117255 -0.020240688877068175 -0.05737204478325493
leaf_weight=205.53310339152813 753.71175543963909 1010.4489710628986 58.489525005221367 36.834837332367897 58.989758297801018 327.40813866257668 162.28210589289665 550.84834350645542 1036.0093664228916 15.371800512075422 172.23524677753448 217.66564974188805 75.585793927311897 18.203283295035362 17.964602708816528 107.56871137022972 225.70800870656967 122.03473283350468 319.61644488573074 207.4456964880228 65.597199559211731 7.1667720377445212 14.307267263531683 21.259027898311615 32.286771133542061 90.238498717546463 659.19913716614246 8.7529793083667737 61.138639569282532 10.279137343168257
leaf_count=838 3091 4192 241 151 247 1362 668 2272 4236 64 702 881 309 75 74 442 927 498 1328 844 270 29 59 87 132 367 2719 36 250 42
internal_value=0 0.0018559 -0.0014188 -0.00788595 0.00492802 -0.0153261 -0.00305032 0.00310636 -0.00452555 -0.0289947 -0.00391871 0.00192933 -0.0157811 -0.0256437 -0.00310214 0.00214222 0.00819087 -0.00828911 0.00791589 0.00214375 0.0104933 -0.022806 -0.00790816 0.00734878 0.00769368 -0.00938067 0.00889632 0.0144259 -0.00974791 0.00220113
internal_weight=0 4737.17 2292.98 943.942 2444.18 541.897 214.489 1349.04 1933.01 52.2066 582.118 389.901 192.217 133.228 57.6419 402.045 294.477 1179.3 798.192 478.576 273.043 39.4386 32.2719 143.294 1862.06 122.525 1739.54 729.091 69.8916 235.987
internal_count=27433 19521 9449 3897 10072 2245 883 5552 7912 215 2376 1583 793 546 237 1652 1210 4821 3280 1952 1114 162 133 585 7696 499 7197 3005 286 969
is_linear=0
shrinkage=0.05


Tree=27
num_leaves=31
num_cat=0
split_feature=0 43 50 43 0 50 6 0 0 50 43 6 6 74 6 0 0 43 10 56 43 0 50 0 43 37 43 50 43 6
split_gain=30.1069 71.3452 64.5923 55.8421 49.6567 44.6475 41.0863 40.7419 36.2253 41.4401 38.1387 34.6645 32.1259 29.9226 29.2294 39.0916 31.0842 39.272 33.2133 28.16 28.0567 47.1193 28.1754 27.0328 26.869 26.0527 24.8664 24.7196 23.4098 31.8574
threshold=0.40309281647205358 0.046665532514452941 0.37805190682411199 0.41884362697601324 -0.067910198122262941 0.16691933572292331 0.15137714147567752 -0.20013684779405591 -0.6810571253299712 -0.32044470310211176 -0.58240580558776844 -0.29154752194881434 -0.18178779631853101 0.28201499581336981 0.3958332240581513 0.76283138990402233 0.98863825201988231 0.71808519959449779 1.0657480955123904 -0.69791525602340687 -0.82328569889068592 -1.2984556555747984 -1.0903932452201841 -1.686050236225128 -0.72377389669418324 0.35490354895591741 0.56706532835960399 -0.58656281232833851 -1.4413845539093015 -0.35267049074172968
decision_type=2 2 2 2 2 2 2 2 2 2 2 2 2 2 2 2 2 2 2 2 2 2 2 2 2 2 2 2 2 2
